2284 100
jungkook -0.05731691 0.15280162 -0.66034055 0.51960665 -0.10249288 -0.099472106 -0.06325085 0.11210095 0.08043652 0.09985692 0.107479334 -0.08746122 -0.26845232 -0.26863372 0.029426815 0.052203435 0.03584056 -0.31698948 0.01669205 0.060612407 -0.018322784 -0.2935013 0.09470295 -0.4230567 -0.24305893 0.25752592 -0.038021147 0.30454177 -0.11969444 -0.21887775 0.15777276 0.022306914 0.19734885 -0.07052519 -0.20982388 0.1758349 -0.3993157 0.17406528 -0.06014051 0.03844721 0.38215107 0.08915854 0.057044383 -0.22425185 0.63328844 0.08347926 -0.3967274 0.071078464 -0.13951877 0.3096315 -0.15439227 -0.06632941 -0.008029258 -0.03277992 -0.5507513 -0.14234807 0.29641604 -0.15956278 0.6025463 -0.1277514 -0.055791233 0.1762045 0.28195402 -0.3594164 0.0028978183 -0.0820779 0.03864398 0.3036156 -0.19724597 -0.08361522 -0.07129393 -0.18794702 0.099776976 0.14871351 0.11475985 0.22696641 -0.2876102 -0.020017307 0.049717203 0.5009562 0.24165367 -0.10251101 -0.06691047 0.117640235 0.21050324 -0.07863324 -0.05595559 0.33412623 0.4020941 0.16620769 0.14730251 0.008502578 -0.21605763 0.22310604 -0.5551264 -0.101333186 0.3290063 0.14591509 -0.44837257 0.16002126
jimin -0.041998416 0.09782564 -0.4672197 0.35570586 -0.072375536 -0.093456216 -0.045455787 0.073819615 0.052941155 0.06466691 0.06847847 -0.04613119 -0.16844219 -0.20174369 0.016421907 0.034908652 0.021362921 -0.21150485 0.021121223 0.04714193 -0.015917163 -0.2067726 0.07834429 -0.2892726 -0.16761452 0.18391405 -0.014396631 0.21203218 -0.09301506 -0.15376991 0.104205914 0.007551411 0.14451267 -0.053268675 -0.13653359 0.119962715 -0.28154424 0.11584568 -0.04056178 0.0153849125 0.26219377 0.06250872 0.03297325 -0.16555059 0.45966896 0.04693272 -0.27309304 0.044457458 -0.08206558 0.21402511 -0.093261026 -0.052492175 -0.008474223 -0.018874574 -0.3933473 -0.09338163 0.21480383 -0.08793564 0.43569908 -0.09362011 -0.027030917 0.1208708 0.19959208 -0.26279908 -0.004839781 -0.059393708 0.027350696 0.22481422 -0.14389911 -0.07575003 -0.044859722 -0.14148535 0.05253911 0.1182441 0.077316865 0.15530694 -0.20517227 -0.022910332 0.029451936 0.35430247 0.16487946 -0.07218071 -0.044254165 0.06904941 0.15036002 -0.058675483 -0.0488593 0.23506854 0.2727509 0.119341694 0.103807576 0.01332355 -0.15427546 0.15887287 -0.38908434 -0.07033272 0.23866098 0.11243923 -0.32580075 0.11058244
crying -0.024744509 0.038448118 -0.18245749 0.14081442 -0.03446512 -0.040394273 -0.009429981 0.018825732 0.011100297 0.02669522 0.03398935 -0.012471424 -0.06917651 -0.08162827 -0.002865199 0.01596025 0.015119046 -0.095327206 -0.0041939397 0.003592585 -0.007392555 -0.08062461 0.025874468 -0.1091077 -0.07265516 0.08007533 -0.013602657 0.08567205 -0.032624528 -0.064210765 0.04146721 -0.00063515943 0.047002338 -0.024548538 -0.05101034 0.041070092 -0.103506185 0.049953435 -0.016015537 0.009309419 0.10496406 0.030115059 0.017942445 -0.051884606 0.16391087 0.027223274 -0.1052805 0.021499043 -0.035873547 0.07656586 -0.031148573 -0.027017705 -0.0071905237 -0.0025731043 -0.14294697 -0.04317376 0.08527678 -0.03650357 0.1628639 -0.036297098 -0.010629965 0.05041403 0.07447825 -0.10711767 0.007822636 -0.032065134 0.0064797956 0.0808996 -0.052475985 -0.02016095 -0.016649667 -0.043192014 0.027419655 0.034764547 0.024873756 0.055736907 -0.0858741 -0.004536304 0.006722925 0.12840633 0.06400979 -0.027484002 -0.007788378 0.024796626 0.052793484 -0.026420707 -0.016686406 0.08112027 0.09635712 0.041564237 0.034819953 -0.0018868838 -0.05255748 0.065603055 -0.13712782 -0.022642791 0.0788911 0.047800448 -0.11482249 0.044380836
love -0.04306421 0.10360281 -0.48235312 0.35946196 -0.06405451 -0.09702358 -0.05142155 0.08580794 0.056202672 0.06965357 0.067650296 -0.056014407 -0.18410286 -0.20530939 0.0152225625 0.039021544 0.025447112 -0.21477753 0.019799747 0.05438069 -0.012017053 -0.21605046 0.065647595 -0.29101914 -0.16790378 0.19102976 -0.014609879 0.21079153 -0.08704918 -0.15773955 0.11548453 0.016894078 0.14018661 -0.052197658 -0.14268643 0.1254207 -0.28719473 0.12794033 -0.04347373 0.015114365 0.26719022 0.060560893 0.04202474 -0.176848 0.46773073 0.05453091 -0.27235126 0.051256087 -0.08091658 0.22385475 -0.099069685 -0.052165654 0.0006353418 -0.01787924 -0.3935063 -0.10112626 0.2234038 -0.09388233 0.44247746 -0.099734895 -0.024040222 0.12817378 0.20459722 -0.27394286 -0.002846253 -0.069028825 0.019215433 0.22265394 -0.15175708 -0.08510271 -0.04713684 -0.14217934 0.056932442 0.11956799 0.08813997 0.16371036 -0.1954158 -0.017357573 0.028661976 0.35974708 0.16139728 -0.07070406 -0.05229204 0.070583686 0.15150869 -0.05753702 -0.05025699 0.2363959 0.29220396 0.122881755 0.10711424 0.01978334 -0.15810364 0.16627431 -0.4059281 -0.08643259 0.25433666 0.117859736 -0.32294554 0.119253375
taehyung -0.004801579 0.15008235 -0.5969117 0.4178654 -0.13989389 -0.14174822 0.027833125 0.10683089 0.06134884 0.07922232 0.0225329 -0.04108755 -0.20554464 -0.19788957 0.089982696 0.028576141 0.00046999654 -0.25523755 0.017560184 0.09796364 -0.043761376 -0.23035166 0.085767336 -0.33730662 -0.27674085 0.20903337 -0.003688967 0.2565618 -0.11077147 -0.1436977 0.1019426 -0.026666101 0.269973 0.00788131 -0.15864536 0.15888412 -0.39034903 0.12814106 -0.06452071 0.07574149 0.31900305 0.06952343 0.017636545 -0.19142526 0.5487915 0.040048964 -0.33208662 0.066800244 -0.080485635 0.2652247 -0.12122472 -0.098000005 -0.049987644 -0.03181387 -0.48001364 -0.1278027 0.23394471 -0.10130719 0.5730043 -0.045960743 -0.10247997 0.17776574 0.29531062 -0.29324058 -0.034362774 -0.013640152 -0.0057834573 0.25543767 -0.14236253 -0.10899099 -0.083179474 -0.1608632 0.073010534 0.17816961 0.08874555 0.16937391 -0.2129135 -0.06256644 0.031199044 0.44321764 0.25590202 -0.10074931 -0.0057773474 0.119172506 0.15286665 -0.048268035 -0.1018886 0.22836544 0.260546 0.20337294 0.16103074 -0.038089067 -0.16462852 0.11442653 -0.39443988 -0.040572375 0.3173014 0.11078556 -0.4254397 0.14556548
really -0.06569648 0.15291482 -0.6188002 0.47701806 -0.105798095 -0.15882573 -0.027835103 0.09649325 0.05815074 0.07984715 0.06882884 -0.05526719 -0.22481972 -0.25699925 0.042829927 0.04560784 0.027224613 -0.27576515 0.027811507 0.05024296 -0.047468662 -0.25866354 0.115416676 -0.38839626 -0.2634789 0.24011146 -0.0070726797 0.28779227 -0.13539034 -0.19741791 0.1481524 -0.0046105743 0.21173409 -0.069587335 -0.16332923 0.13172793 -0.3841796 0.15805273 -0.06399585 0.041437976 0.33753884 0.07028858 0.008011777 -0.20075722 0.60408294 0.047762696 -0.36381862 0.050942075 -0.08759664 0.28421813 -0.10911722 -0.0644186 -0.021010272 -0.044719234 -0.517878 -0.121457465 0.27615976 -0.10952218 0.57939976 -0.12094347 -0.061831206 0.16234252 0.26644325 -0.34958115 -0.039328482 -0.05425414 0.032992706 0.29078525 -0.18239526 -0.11446752 -0.061511762 -0.1885499 0.06135024 0.15296403 0.11666155 0.2006492 -0.26752445 -0.06550505 0.03408073 0.49062732 0.24580042 -0.0984793 -0.057377633 0.088992864 0.1998672 -0.07065806 -0.08989209 0.26806995 0.32571435 0.19598094 0.14369808 0.0014620221 -0.2175281 0.19993563 -0.48488176 -0.08912023 0.33107644 0.15817574 -0.43807742 0.14536105
cr -0.015705984 0.030017804 -0.17585598 0.12762111 -0.023818307 -0.012600718 -0.03242886 0.032645922 0.020217648 0.02979688 0.03759125 -0.02212803 -0.07103992 -0.07961696 -0.0022049015 0.013511466 0.024037909 -0.09153916 0.007658908 0.030373096 0.009791507 -0.09403519 0.019761404 -0.101314455 -0.038429398 0.0689265 -0.00069237064 0.07410566 -0.022393176 -0.06428914 0.044042364 0.014687958 0.026290687 -0.028181257 -0.060489204 0.05529674 -0.087078646 0.04682783 -0.008479713 -0.0068553207 0.09669851 0.017353542 0.032534692 -0.08362821 0.16846757 0.030568115 -0.09097083 0.030990895 -0.029388744 0.073403016 -0.044477373 -0.01261528 -0.0045867274 -0.0016859219 -0.13680765 -0.026623383 0.085011184 -0.029889805 0.14046754 -0.041488662 -0.0076849726 0.03334844 0.07580271 -0.113035604 0.007916238 -0.03927674 0.012746168 0.09396934 -0.046136916 -0.026259383 -0.019157521 -0.04837812 0.03732745 0.04981746 0.01815509 0.06992408 -0.0768713 0.0045692 0.010996888 0.12035283 0.027082078 -0.031884927 -0.029616531 0.02447695 0.050468165 -0.01604083 -0.008722116 0.09382822 0.12773351 0.020554118 0.032470424 0.008225527 -0.056010414 0.054384712 -0.15577227 -0.02536894 0.084726475 0.020094514 -0.09716849 0.049459264
get -0.05138987 0.13130361 -0.5415178 0.41686723 -0.08835311 -0.13769354 -0.028427342 0.090991855 0.059523363 0.06482397 0.06451736 -0.048412405 -0.20457587 -0.22670336 0.0335395 0.043254986 0.02373878 -0.2404307 0.016436037 0.043630205 -0.032824416 -0.22719088 0.09746563 -0.33453226 -0.22616541 0.20923933 -0.011093541 0.2510843 -0.1160523 -0.18267813 0.12753423 -0.0057598026 0.1878056 -0.06382392 -0.14932562 0.11797943 -0.3347016 0.13623436 -0.056704666 0.038285732 0.30011898 0.059264045 0.018212158 -0.17733547 0.53117687 0.04449672 -0.32021865 0.047725637 -0.07824815 0.24863666 -0.10168378 -0.06468472 -0.015304345 -0.038109154 -0.45932165 -0.105336025 0.24533777 -0.09367239 0.5012359 -0.10711152 -0.057872877 0.14943399 0.23192842 -0.2993395 -0.033440616 -0.055830467 0.027315207 0.25154915 -0.16798884 -0.09947857 -0.04931 -0.15755475 0.05464533 0.12814601 0.10200721 0.17637192 -0.23294541 -0.060711056 0.031465832 0.42908898 0.2167421 -0.08517835 -0.04574644 0.08219487 0.17505857 -0.069756426 -0.07489754 0.23214349 0.28410456 0.17061238 0.121532016 -0.0017718683 -0.1920653 0.16986865 -0.43338946 -0.08208957 0.28815618 0.14162816 -0.38474652 0.13083908
need -0.03516671 0.14787668 -0.58044773 0.42322278 -0.11797145 -0.14360984 -0.0045154095 0.10265642 0.06636219 0.06980269 0.052139662 -0.05089429 -0.1998777 -0.22843191 0.06921707 0.04260733 0.022731725 -0.24465838 0.021896536 0.062890835 -0.044861544 -0.24114513 0.105646774 -0.34554523 -0.26294252 0.20725922 -0.004573775 0.26435304 -0.112912744 -0.15601961 0.12454154 -0.018427579 0.23730426 -0.02598654 -0.15351857 0.13065358 -0.363331 0.12474913 -0.07133471 0.055514183 0.30759728 0.06805709 -0.0002461624 -0.20364243 0.56852037 0.03414867 -0.3370427 0.056399778 -0.08360452 0.26639363 -0.11051135 -0.08491944 -0.019390035 -0.046854872 -0.4808451 -0.1297222 0.24240896 -0.11044604 0.5525 -0.07695807 -0.062243763 0.17463227 0.2752448 -0.31578732 -0.036844466 -0.03866211 0.0063013625 0.25286508 -0.17008561 -0.11417032 -0.068542406 -0.1608712 0.06596533 0.15874332 0.09369092 0.16618189 -0.22864833 -0.06335817 0.03437402 0.44155383 0.25925618 -0.09745956 -0.025845373 0.09148421 0.1813457 -0.04603516 -0.095657505 0.22650802 0.2795305 0.1928318 0.14179309 -0.005782625 -0.19244462 0.15018924 -0.41503105 -0.06839691 0.31289774 0.15040141 -0.4183425 0.13117771
broke 0.00048530113 0.0034227872 0.0048319404 0.00035732333 -0.0068544624 0.0047000926 0.003330986 0.0010534242 0.005947012 -0.004066778 -0.0014826806 -0.0055441055 0.0031269325 -0.0040199514 -0.0075006695 -0.004568062 0.0017334721 -0.00020552787 -0.0062150843 -0.0065724025 -0.0017062846 -0.0045088185 0.0037881709 0.0047046025 0.0014472893 -0.0014304429 0.002731237 -0.0031794265 -0.0073262826 -0.006788126 -0.007711546 0.0011805324 -0.0064116926 -0.0021098368 -0.006430551 0.0045531336 0.0062498837 -0.0013550619 0.010288721 -0.00515098 0.00012638498 0.0017379449 0.008516221 0.003181753 -0.009941179 -0.0007357754 -0.003889646 0.004257782 0.00011692292 -0.007915953 0.0070133395 0.009582739 0.008111658 0.002584604 0.0033609723 0.005350507 -0.006000522 -0.0012587935 -0.0057961163 -0.0002152125 0.0026447605 -0.0042006676 -0.0047502816 0.0025151803 7.1060706e-05 -0.010269535 -0.001027761 0.005082308 0.006842692 0.009560116 0.0061001885 -0.002095756 0.006606883 0.0028730195 -0.0060544205 -0.007134945 -0.0067474153 -0.00214268 0.00032506365 -0.010199036 -0.0059477817 -0.008882175 -0.0007712187 -0.003977158 0.0007511214 0.00445427 0.010288347 -0.004937889 0.0091209775 -0.008266605 -0.008067076 -0.0058428454 -0.0030535094 0.007560266 -0.008339141 0.002214319 0.0011403294 -0.0062163 -0.0029269983 0.0048772567
well -0.024618417 0.11236937 -0.47271195 0.33814332 -0.10825815 -0.11717576 0.009171194 0.08066016 0.05357698 0.06712015 0.017824281 -0.028558237 -0.16154546 -0.16625953 0.06209208 0.031197542 0.011067968 -0.2071084 0.027954219 0.081678934 -0.036914174 -0.17927 0.07506927 -0.26967758 -0.22687672 0.16259478 0.0044350703 0.21756704 -0.09795797 -0.11613156 0.08874548 -0.025740938 0.21333535 -0.007438095 -0.10965022 0.11395022 -0.30680555 0.10762084 -0.049850963 0.05691326 0.2552117 0.05121408 0.007443062 -0.16682823 0.45042598 0.028955398 -0.26635692 0.048046567 -0.05104812 0.21621539 -0.095123 -0.07861397 -0.033424012 -0.031934723 -0.3895127 -0.101873256 0.19295691 -0.08116558 0.45867124 -0.050156616 -0.06576269 0.14587611 0.23686 -0.25083262 -0.04209357 -0.015450284 -0.004902953 0.21157299 -0.12311458 -0.098762214 -0.0639607 -0.1343687 0.046476267 0.14375995 0.069070466 0.13586183 -0.17613302 -0.057593677 0.017610742 0.35691306 0.20019904 -0.086061426 -0.01376271 0.088418 0.13270687 -0.035397492 -0.084631905 0.16437694 0.21545647 0.16928001 0.13109878 -0.026703795 -0.14181487 0.09175898 -0.33292258 -0.034332607 0.2647394 0.098743044 -0.34001067 0.10714451
please -0.049478494 0.13303742 -0.58749014 0.44706175 -0.09502137 -0.14168486 -0.033785723 0.09593184 0.04945732 0.07528176 0.08402038 -0.05839489 -0.21050678 -0.23711433 0.034875304 0.05010438 0.035464175 -0.25735942 0.014416766 0.036678772 -0.03409403 -0.24340759 0.08706677 -0.35929027 -0.23550417 0.22854857 0.001170156 0.27082813 -0.11791767 -0.1928227 0.13659242 -0.0044220383 0.19408688 -0.063464954 -0.17471376 0.13692242 -0.3450728 0.14537284 -0.07560477 0.04172042 0.3079221 0.07929823 0.021624733 -0.1873646 0.5679434 0.045945004 -0.3354796 0.043417674 -0.09115794 0.27423626 -0.09813749 -0.059055272 -0.0072986376 -0.033801798 -0.5034765 -0.12610665 0.25336102 -0.10158558 0.5344778 -0.1131775 -0.057297863 0.15381074 0.24479409 -0.32529742 -0.029038573 -0.05141803 0.019610683 0.26720262 -0.1854369 -0.09788644 -0.05122111 -0.17449325 0.061054267 0.14343186 0.10425567 0.19428445 -0.23895761 -0.05719814 0.045387566 0.4428755 0.24091053 -0.09168584 -0.04891242 0.088670805 0.19082923 -0.058573756 -0.07512887 0.260421 0.32135022 0.18934095 0.13393837 0.011942095 -0.20461205 0.17992176 -0.4564535 -0.110899575 0.30681685 0.15033144 -0.4101595 0.11677234
happy -0.061084423 0.1512626 -0.63483864 0.49996582 -0.097130805 -0.16560604 -0.049174894 0.11198759 0.06828232 0.069485225 0.08302617 -0.04409006 -0.21444787 -0.2696646 0.04818403 0.03780037 0.016264444 -0.258792 0.023690911 0.017135384 -0.024856573 -0.24579972 0.104916185 -0.41593722 -0.2780206 0.24799702 -0.021297298 0.3002912 -0.14884524 -0.21537672 0.15752004 0.013475257 0.21598771 -0.09364926 -0.17953001 0.13448341 -0.40719703 0.15477328 -0.08580968 0.059791744 0.35089985 0.0685487 0.001407734 -0.19908825 0.6328166 0.0470554 -0.36162537 0.038480103 -0.10913278 0.29412892 -0.10582135 -0.0652986 -0.003971999 -0.059537906 -0.5433583 -0.13494226 0.268103 -0.11247373 0.6281399 -0.10876601 -0.04721244 0.18571302 0.26676658 -0.37338728 -0.050634086 -0.058723804 0.039883506 0.29019496 -0.21327321 -0.12029111 -0.035419393 -0.19899647 0.05118782 0.13870552 0.10790865 0.20761973 -0.27753705 -0.0858507 0.039989863 0.52258974 0.25240475 -0.096831895 -0.045808475 0.1037621 0.21736632 -0.071330525 -0.08073673 0.30542746 0.31932926 0.20493405 0.15771084 0.036478568 -0.21958162 0.23602074 -0.5036922 -0.12771003 0.3440076 0.17200126 -0.4818202 0.1425056
amp -0.06419029 0.17330611 -0.69612646 0.5282486 -0.121764965 -0.17581114 -0.03840971 0.11449743 0.06487419 0.08040448 0.0898643 -0.060822688 -0.25050446 -0.29541606 0.06779013 0.06046213 0.035928108 -0.31314886 0.01736854 0.0414216 -0.048799388 -0.29605642 0.11262271 -0.429827 -0.30932364 0.26052412 -0.018428339 0.33128592 -0.14756303 -0.21837912 0.17309716 -0.013433498 0.25343663 -0.07446507 -0.19355725 0.15954117 -0.43001902 0.1634706 -0.079954915 0.06061091 0.3881549 0.09164308 0.0028624288 -0.23727538 0.7034308 0.054092467 -0.42115545 0.054053757 -0.11421281 0.33245465 -0.12675968 -0.09279317 -0.01680656 -0.053473264 -0.603047 -0.16091478 0.30306503 -0.1356232 0.67088294 -0.11720718 -0.059564132 0.20363821 0.30517665 -0.39282575 -0.033273328 -0.06635676 0.022882126 0.3143045 -0.22284836 -0.13283433 -0.06638595 -0.21451855 0.07283868 0.16922586 0.12674344 0.2139522 -0.28713998 -0.06489439 0.04951292 0.5558524 0.30534476 -0.097434714 -0.06316706 0.10791432 0.23292214 -0.077541575 -0.10236343 0.3116944 0.37487677 0.22949956 0.1607413 0.0070529985 -0.2432746 0.22614178 -0.55187225 -0.122679874 0.36563396 0.19920567 -0.51785 0.14465298
good -0.06290477 0.16857474 -0.7027026 0.5452403 -0.12391439 -0.17347762 -0.032896437 0.119201094 0.06916963 0.09003222 0.084633306 -0.07440085 -0.2497543 -0.29121202 0.044864148 0.050988648 0.02462689 -0.3082147 0.023537152 0.039292682 -0.04805233 -0.2939982 0.11409492 -0.43593833 -0.29535303 0.2617239 -0.016336622 0.32359767 -0.14189297 -0.2216573 0.15591325 -0.0023598324 0.25180018 -0.07009224 -0.19729458 0.15825196 -0.43353778 0.17024657 -0.080010496 0.05527872 0.3740156 0.09178961 0.025569744 -0.21805397 0.685174 0.04926281 -0.40899748 0.057078626 -0.11195755 0.33249873 -0.12767246 -0.072558925 -0.0012402025 -0.046542905 -0.5934541 -0.14257784 0.31669906 -0.13461462 0.6630198 -0.13706876 -0.061004717 0.1846126 0.28995433 -0.39102814 -0.02591942 -0.068460606 0.035551462 0.3135265 -0.22243243 -0.1228107 -0.06392641 -0.21571006 0.064083815 0.171092 0.13278276 0.23355831 -0.29160154 -0.07116056 0.047457516 0.5494268 0.29958725 -0.11416144 -0.05925296 0.118812785 0.2373125 -0.079523146 -0.095048375 0.31969547 0.37785214 0.22306938 0.16281769 0.01711552 -0.2495578 0.22791143 -0.5449048 -0.125295 0.37234807 0.18441704 -0.5044013 0.14927647
im -0.059475098 0.15721405 -0.6602208 0.510965 -0.10573785 -0.16772759 -0.03874338 0.1089594 0.06645697 0.08382475 0.08107532 -0.065189846 -0.2238145 -0.27216268 0.04758578 0.04753145 0.02599253 -0.27812365 0.019998362 0.031170819 -0.03792965 -0.26542416 0.10491905 -0.40704095 -0.28004467 0.24914612 -0.012322801 0.30207577 -0.13159695 -0.21745399 0.1554061 -0.006605515 0.22732033 -0.07774114 -0.1823805 0.14819065 -0.40411225 0.15735152 -0.07870208 0.048386276 0.34943828 0.0855573 0.019650457 -0.20157854 0.64237547 0.053597216 -0.3804424 0.04626887 -0.10415999 0.30046985 -0.115234174 -0.07471336 -0.0061097303 -0.045759313 -0.5570518 -0.13338256 0.2846972 -0.117104016 0.62116563 -0.11476478 -0.062939525 0.18162131 0.27030224 -0.3680714 -0.037627295 -0.061909795 0.03161522 0.29735887 -0.20163976 -0.11505325 -0.055288553 -0.20032646 0.06267329 0.15223005 0.12322353 0.21659525 -0.27046442 -0.072669886 0.049505718 0.5158194 0.27962574 -0.103561826 -0.053757858 0.10398096 0.21775827 -0.078300685 -0.094750024 0.30219138 0.33934778 0.20493317 0.14458837 0.018846203 -0.22895847 0.21319367 -0.5192737 -0.115203395 0.34450418 0.18048856 -0.4768183 0.13961513
look -0.0135132875 0.1301144 -0.5359759 0.38717237 -0.119327 -0.1371524 0.018484667 0.09171719 0.056876894 0.069000475 0.03042483 -0.044522345 -0.17949833 -0.19355674 0.072564445 0.028718146 0.003991631 -0.22607642 0.022258976 0.080586985 -0.0327671 -0.2091019 0.084612586 -0.31350583 -0.25220335 0.19415998 -0.0018438838 0.22745626 -0.108965315 -0.13155141 0.097273216 -0.018240884 0.22948302 -0.012423248 -0.1412498 0.1350334 -0.3388746 0.12037164 -0.06728325 0.055442348 0.27898076 0.056752708 0.0121605005 -0.1807293 0.50756514 0.03267333 -0.30053824 0.05627044 -0.072275534 0.24577023 -0.095223494 -0.08746466 -0.038355716 -0.037000354 -0.4398995 -0.110615574 0.21713774 -0.083034135 0.5139862 -0.054297213 -0.08164875 0.15312378 0.2616258 -0.26766247 -0.034565862 -0.027832838 -0.005306733 0.23184855 -0.1361487 -0.103659905 -0.06392869 -0.14055136 0.05977512 0.15907216 0.07622919 0.16103648 -0.1979111 -0.059403308 0.016720764 0.3994203 0.22965723 -0.09650345 -0.018222686 0.094422236 0.15235578 -0.038591318 -0.093326576 0.20197438 0.2428751 0.18956433 0.1346066 -0.022061987 -0.16351908 0.11666874 -0.37129483 -0.04466694 0.2925928 0.10866021 -0.3835092 0.12802258
hope -0.049928617 0.10414908 -0.45130834 0.34948704 -0.07570751 -0.11324527 -0.017315617 0.073059596 0.04008927 0.054034863 0.047608808 -0.039588146 -0.16431385 -0.1781894 0.031724863 0.032233797 0.019737523 -0.2026775 0.017432464 0.035968363 -0.031143883 -0.18748151 0.08275377 -0.28112268 -0.19944511 0.16508934 -0.0105929095 0.21426919 -0.098400384 -0.14025359 0.10706102 -0.010387462 0.16641274 -0.05141115 -0.115919806 0.103143774 -0.28297767 0.12171421 -0.05242532 0.03738799 0.24753523 0.045153517 0.0032387201 -0.14761488 0.4466917 0.040806074 -0.2695248 0.03808408 -0.06873969 0.20665249 -0.082452685 -0.045764323 -0.013664864 -0.027120369 -0.37518808 -0.09190342 0.20018485 -0.08384721 0.42916992 -0.09348074 -0.03847079 0.12140318 0.19160774 -0.24561183 -0.03303778 -0.03487202 0.024789771 0.21457376 -0.14365211 -0.07907242 -0.04510985 -0.13239966 0.048881944 0.11418081 0.08132752 0.14733848 -0.19719176 -0.04449877 0.028994922 0.3490555 0.1823868 -0.07302918 -0.03821778 0.06934267 0.14446795 -0.05257703 -0.06379436 0.19266157 0.22986671 0.14321192 0.10972022 0.0058613657 -0.15984865 0.13499038 -0.35207632 -0.070140116 0.240327 0.11325951 -0.3229614 0.09430207
feel -0.033020545 0.096388415 -0.36849645 0.30050668 -0.06403471 -0.11960715 0.0038935072 0.10709424 0.054404594 0.06245689 0.06329497 -0.0045963516 -0.12424128 -0.117854975 -0.024353346 0.028272273 0.029665852 -0.16277312 0.003926343 0.009970621 -0.06489759 -0.15899813 0.066758834 -0.19521576 -0.17098707 0.13275042 0.010085959 0.14411649 -0.06850364 -0.09959964 0.0991172 0.022343526 0.11669547 -0.029622938 -0.103194036 0.069397286 -0.24340567 0.0915036 -0.062068004 0.0663157 0.20601256 0.051889785 0.041286655 -0.0979688 0.37009463 0.005852206 -0.21173242 -0.020008974 -0.051809456 0.1660176 -0.079874076 -0.07544811 7.0080714e-06 -0.02217178 -0.29386815 -0.06109213 0.1507157 -0.049708765 0.3436726 -0.06684406 -0.04165797 0.11256132 0.14595683 -0.18207684 -0.031083675 -0.045263562 0.021933064 0.16914862 -0.1252971 -0.067244545 -0.0008747369 -0.08816728 0.005980353 0.087454066 0.08629961 0.115593374 -0.13077448 -0.0591469 0.03371025 0.30387154 0.1618506 -0.047054555 -0.047194317 0.05617705 0.120900825 -0.06529804 -0.07845231 0.17214076 0.19969803 0.13987637 0.084958486 -0.017637176 -0.12867059 0.16171159 -0.2711047 -0.0862203 0.20779549 0.106512226 -0.25798503 0.038648162
day -0.066485256 0.1550944 -0.6618105 0.505655 -0.11434212 -0.17866479 -0.028067231 0.10669424 0.059886552 0.086025245 0.078312755 -0.060406845 -0.22583969 -0.25788638 0.046760656 0.042401318 0.019922024 -0.27680737 0.015464559 0.043854263 -0.038448773 -0.26398867 0.105027765 -0.40885258 -0.2823696 0.23773314 -0.009855971 0.30535424 -0.1303408 -0.21060595 0.14824784 0.0006179197 0.23820339 -0.06936741 -0.18981259 0.1555547 -0.40773112 0.1606164 -0.074155144 0.06341491 0.35674852 0.08470884 0.015702464 -0.2050265 0.63132364 0.058757335 -0.38098404 0.052555326 -0.11827136 0.3147634 -0.11259448 -0.07289861 -0.0061501027 -0.04614783 -0.56763184 -0.14069715 0.2843872 -0.11004662 0.62674963 -0.12104755 -0.057722818 0.18383735 0.26432195 -0.37173778 -0.036803138 -0.053348895 0.028964588 0.29446805 -0.20657478 -0.11895786 -0.05910454 -0.19476573 0.06555519 0.14495535 0.11719737 0.2034051 -0.2667247 -0.055212174 0.047109313 0.510304 0.2661326 -0.10391332 -0.056123476 0.09820551 0.21797243 -0.078853436 -0.09374725 0.30717164 0.35615313 0.20494172 0.14316505 0.027723001 -0.23166999 0.21966188 -0.51083034 -0.121869475 0.3410862 0.1807902 -0.4942581 0.13499326
made -0.007923925 0.012186131 -0.1428225 0.09986903 -0.009835658 -0.002176931 -0.030006826 0.028806321 0.03081012 0.025805376 0.028073493 -0.026245506 -0.06977219 -0.06446724 -0.005679716 0.017831987 0.016549204 -0.075455256 0.023080055 0.04333322 0.020272734 -0.08741186 0.012799722 -0.08619903 -0.010974936 0.0652019 -0.016916232 0.06142882 -0.0131330015 -0.047361925 0.044481866 0.015074235 0.009301097 -0.025125235 -0.050297465 0.05581114 -0.07786318 0.04596939 -0.0040076086 -0.020880325 0.09152755 0.013853098 0.03271411 -0.08419594 0.14495158 0.024504235 -0.07372543 0.035498742 -0.029879259 0.06576386 -0.04382714 -0.00897413 -0.0016828756 0.005969236 -0.10903825 -0.023772176 0.07738585 -0.03630366 0.1275399 -0.04048159 0.01220016 0.0314364 0.068374425 -0.099864654 0.025707 -0.032628514 0.009944014 0.085444465 -0.045510817 -0.01729657 -0.017876491 -0.043386072 0.04162987 0.04685681 0.018402345 0.060469322 -0.059052147 0.029217152 0.005913302 0.09048057 0.0055484646 -0.022779511 -0.021032197 0.016602494 0.03891738 -0.007164233 0.0043146927 0.09780087 0.124632075 0.014455016 0.024474345 0.0032965424 -0.037309088 0.05464675 -0.14806873 -0.017955894 0.07731205 0.012880453 -0.07398309 0.047639556
like -0.06976309 0.18025327 -0.7628795 0.59518534 -0.12329434 -0.188949 -0.040087383 0.12662482 0.079034105 0.09337401 0.09632578 -0.07882486 -0.26275784 -0.31905293 0.0541992 0.058397297 0.036291666 -0.3340948 0.026670514 0.05057951 -0.04860543 -0.3192347 0.12759024 -0.47442546 -0.32502788 0.29612425 -0.017209522 0.3501776 -0.15606652 -0.24782966 0.17726569 -0.009990023 0.2609877 -0.08378725 -0.22257222 0.17385127 -0.4636844 0.18914999 -0.08910413 0.06206117 0.41162193 0.0962813 0.020718168 -0.2454519 0.7496151 0.05952285 -0.44458163 0.053838186 -0.12669589 0.3518684 -0.13982776 -0.087439016 -0.01196783 -0.051380802 -0.65278995 -0.16302983 0.33860743 -0.14173318 0.71910715 -0.13679188 -0.06731191 0.21344751 0.31484717 -0.42670357 -0.04146511 -0.07182035 0.038275626 0.34959313 -0.23011658 -0.13063398 -0.072630316 -0.2249079 0.0764812 0.18368876 0.14290325 0.25185084 -0.32353908 -0.076041624 0.051068265 0.60084283 0.31996036 -0.12375462 -0.06283333 0.12115633 0.2558735 -0.09471135 -0.10448001 0.357407 0.40933976 0.24595705 0.16732733 0.022149697 -0.27536204 0.2505633 -0.60464436 -0.13581456 0.40242806 0.20298204 -0.55374837 0.16625889
makes -0.045258828 0.09603951 -0.35558692 0.28765422 -0.055923656 -0.10616338 -0.004557043 0.09533902 0.059676494 0.04565694 0.052753415 -0.011235794 -0.12906972 -0.114741005 -0.015761718 0.030449763 0.023270063 -0.15091941 0.007651663 0.008626924 -0.06593542 -0.14512096 0.06624237 -0.19222066 -0.15695643 0.13475302 -0.0026704618 0.13944818 -0.06337827 -0.09161714 0.09589721 0.023615343 0.107433625 -0.028705236 -0.095374875 0.06854058 -0.24348803 0.086711966 -0.057014767 0.054600917 0.1942374 0.052569684 0.039050803 -0.08945959 0.3584154 0.007981028 -0.20247856 -0.013460261 -0.047122315 0.16540837 -0.071666054 -0.0723059 0.012023014 -0.035132766 -0.28542215 -0.055897728 0.14497796 -0.0506238 0.3275034 -0.06787198 -0.042243253 0.11007625 0.14326036 -0.17805248 -0.024172662 -0.0394648 0.017872183 0.16438589 -0.118341535 -0.059567504 -0.0077876123 -0.08924602 0.011782324 0.07247926 0.086386316 0.11253836 -0.12832132 -0.057317436 0.027282218 0.28596857 0.1600895 -0.053017464 -0.035263203 0.05444891 0.121810615 -0.05414751 -0.070736274 0.16275197 0.18579413 0.12810937 0.08826204 -0.011223624 -0.12974592 0.158014 -0.27024573 -0.074324645 0.19245557 0.101863086 -0.25707477 0.041510664
tell -0.012949063 0.00450351 -0.14324676 0.101904936 -0.0034622995 0.0075533204 -0.04427052 0.028607033 0.032384582 0.027588537 0.02997933 -0.01788469 -0.06798982 -0.07061726 -0.01259368 0.0071186908 0.018818501 -0.07861608 0.02619797 0.047549807 0.023762647 -0.08424466 0.009196499 -0.07042049 0.002355294 0.058150586 -0.01223839 0.05465461 -0.009586503 -0.03689734 0.03965225 0.015791124 0.017617133 -0.020078385 -0.050525468 0.05540602 -0.070609964 0.04277818 -0.0027386008 -0.02039218 0.08608017 0.0152919255 0.041048285 -0.08547366 0.12709786 0.03397323 -0.07721934 0.029737126 -0.025986347 0.055855554 -0.045327675 -0.0172457 -0.006697609 0.008788366 -0.10195176 -0.026311502 0.070403755 -0.041198853 0.11077993 -0.04814358 0.020176621 0.033637453 0.06303614 -0.095061556 0.020963306 -0.04087827 0.0076957582 0.078515515 -0.04019291 -0.018675733 -0.018619021 -0.035246942 0.04371618 0.036038574 0.01489643 0.06614753 -0.061026536 0.030517805 0.0050586765 0.07613509 -0.0061550257 -0.0072171744 -0.031294562 0.022639789 0.047644325 -0.009466049 0.014780693 0.095812544 0.121216945 -0.0016398538 0.02012757 0.009958595 -0.037866313 0.04252033 -0.14845361 -0.021029295 0.07128068 0.008452181 -0.07320532 0.05282003
cute -0.03525743 0.081573896 -0.35878706 0.2747812 -0.06759749 -0.07430636 -0.02495769 0.058938187 0.023287533 0.050722633 0.057068814 -0.03219639 -0.13373576 -0.13777216 0.027640147 0.029994084 0.01864611 -0.15796785 0.014822455 0.024264365 -0.016091151 -0.14922145 0.05166983 -0.21889937 -0.1420716 0.14108856 0.0019396764 0.15854107 -0.07043595 -0.1189412 0.07371408 0.0002010349 0.12718418 -0.03591242 -0.10758273 0.07321303 -0.21396089 0.08260448 -0.05116639 0.025704343 0.17662738 0.04333493 0.010360078 -0.10876571 0.34684044 0.028787654 -0.20108256 0.026743408 -0.060823925 0.16884148 -0.064863496 -0.02873145 -0.0070670964 -0.016198395 -0.30540305 -0.07516626 0.1459955 -0.055506855 0.3159526 -0.069530174 -0.04104986 0.086850405 0.149732 -0.19492981 -0.017943256 -0.03000595 0.012453346 0.1594791 -0.10707169 -0.055479117 -0.02272331 -0.10393352 0.033369005 0.08611977 0.0632078 0.11464819 -0.1467363 -0.04120015 0.034938976 0.2638327 0.14384016 -0.052669782 -0.025134305 0.056535874 0.115494825 -0.029812463 -0.043554474 0.16301636 0.19901791 0.11554016 0.07944751 0.016135734 -0.13011324 0.11709373 -0.26480633 -0.0595091 0.18325154 0.081622876 -0.24232115 0.068726115
better -0.03995503 0.08266131 -0.3273394 0.2770224 -0.04682842 -0.10902863 0.006126489 0.10165859 0.06325683 0.04501521 0.057369884 -0.00075895106 -0.12462669 -0.099205315 -0.028427241 0.026786298 0.015988689 -0.14496365 0.014690009 0.014627414 -0.069435336 -0.14377739 0.069503404 -0.16933423 -0.14891429 0.12608984 -0.0047047846 0.12798777 -0.06352602 -0.078408174 0.10003153 0.031851247 0.10057812 -0.03080011 -0.086168095 0.059250955 -0.23417369 0.079512104 -0.048552126 0.061490357 0.19315189 0.051094797 0.041463684 -0.07440114 0.3376384 -0.0018749514 -0.19821256 -0.022161875 -0.048494775 0.15115261 -0.06501017 -0.07612618 0.010767016 -0.023935225 -0.25835598 -0.047241013 0.14008906 -0.04936279 0.3089058 -0.07160197 -0.04623502 0.10637077 0.13010298 -0.17018883 -0.03157873 -0.03987964 0.011286981 0.16082217 -0.11330939 -0.055167962 0.003799401 -0.07496755 -0.0015502584 0.0725201 0.079999074 0.11338189 -0.11157557 -0.057679206 0.0327664 0.2681794 0.13912328 -0.034487963 -0.04056623 0.0461389 0.107889354 -0.048099246 -0.07335944 0.15818107 0.18495995 0.122755796 0.07339327 -0.017484983 -0.11520543 0.15573925 -0.23908575 -0.07700563 0.18733388 0.09685325 -0.23281635 0.029011037
know -0.0547692 0.14936538 -0.6055804 0.47059888 -0.09616157 -0.15289643 -0.02838922 0.1018529 0.059786085 0.076809384 0.070135176 -0.05638175 -0.20905918 -0.25041828 0.04402013 0.039259624 0.029856713 -0.26631552 0.022329463 0.038860228 -0.037103847 -0.25180066 0.10065191 -0.38157648 -0.26054806 0.23292413 -0.009972369 0.28343326 -0.12289448 -0.1949188 0.1401797 -0.005276493 0.20964718 -0.066987924 -0.16907007 0.14087315 -0.36901456 0.14672783 -0.06466453 0.049212206 0.32437578 0.07997438 0.019290954 -0.18927325 0.5982373 0.04367175 -0.3554621 0.040977098 -0.09579242 0.28287113 -0.106010064 -0.071961686 -0.0022604652 -0.03556851 -0.5182816 -0.13348462 0.26821154 -0.11338844 0.5734704 -0.11122282 -0.05245402 0.16379485 0.24762747 -0.33363274 -0.035812885 -0.05458375 0.024305215 0.27446276 -0.19001496 -0.10105514 -0.04967107 -0.18006484 0.05454644 0.1385918 0.10926115 0.20086393 -0.25004438 -0.065683864 0.047549896 0.47659 0.25764033 -0.090498716 -0.052213725 0.096596114 0.19509493 -0.075798765 -0.08418559 0.27650774 0.3217231 0.19292516 0.13611278 0.0142476335 -0.2153937 0.20269431 -0.4771549 -0.10589281 0.3163227 0.16344082 -0.4380993 0.13344084
army -0.007336667 -0.001711551 -0.119261414 0.067389786 0.010133296 0.015695019 -0.039389353 0.019968055 0.028260786 0.028470986 0.019005017 -0.02663629 -0.046550225 -0.049883846 -0.017360827 0.0026892044 0.010694227 -0.06423825 0.01817106 0.046892196 0.021146167 -0.07118286 -0.0020915442 -0.053178232 0.017385088 0.047449842 -0.0053256457 0.039576545 -0.0078678345 -0.030779872 0.027837276 0.021417214 -0.0064663165 -0.010568813 -0.035597708 0.044056304 -0.04095803 0.039147247 0.009099921 -0.025547387 0.06379708 0.011409572 0.0423865 -0.075077094 0.101629704 0.02452807 -0.05298129 0.022149049 -0.028998734 0.05109465 -0.047959086 -0.0034297013 0.005507026 0.011734079 -0.07052715 -0.011025347 0.06298868 -0.03908613 0.07930888 -0.03180601 0.024752162 0.02364199 0.04333665 -0.07533105 0.022773743 -0.039429445 0.0043771504 0.06888374 -0.03806176 -0.016222278 -0.010161003 -0.028716667 0.03489359 0.04226657 0.013469963 0.060916778 -0.03494952 0.0401241 0.006936457 0.068748064 -0.011257594 -0.0069982717 -0.025304044 0.008680223 0.025053853 -0.0058870316 0.012731659 0.08356501 0.1121858 -0.014435662 0.02017177 0.0018393755 -0.024746997 0.04720747 -0.12989739 -0.020103928 0.05982284 0.013484154 -0.056821708 0.049551815
miss -0.04994317 0.16580448 -0.60688865 0.46045232 -0.124562345 -0.17982751 -0.016604712 0.09077189 0.010304637 0.07861059 0.08204554 -0.055895317 -0.22809295 -0.24562028 0.06323935 0.059580103 0.03742168 -0.29000077 0.026634209 -0.0033383959 -0.039775647 -0.22121666 0.1061585 -0.34097996 -0.25815794 0.2716543 0.024766043 0.26015368 -0.106532894 -0.22911139 0.15907602 -0.0015612289 0.23086962 -0.096402355 -0.1869354 0.1315005 -0.3149621 0.14966233 -0.10393141 0.002523641 0.3102673 0.05134263 -0.0032127134 -0.14691103 0.58221567 0.06252881 -0.34240255 0.052037157 -0.0904138 0.27811167 -0.08715922 -0.065377735 -0.00762584 -0.027431581 -0.55789506 -0.10947696 0.27001578 -0.07321335 0.52099246 -0.14370288 -0.05766407 0.14670858 0.21193479 -0.35905632 -0.035059754 -0.027247816 0.02284687 0.22549151 -0.19020206 -0.13062489 -0.079636455 -0.2018273 0.045629855 0.1292843 0.108939365 0.19450495 -0.2518968 -0.040116023 0.06715174 0.44291708 0.28435835 -0.10004377 -0.04030342 0.098698005 0.23400979 -0.07234813 -0.07209342 0.29230097 0.31345236 0.21493271 0.112041704 0.021247897 -0.22051385 0.14074263 -0.43707594 -0.17669061 0.3183265 0.19637239 -0.45467523 0.10529984
much -0.05350639 0.15416287 -0.61866397 0.47511008 -0.109429136 -0.15709347 -0.03700222 0.10597764 0.06293759 0.07758379 0.08395596 -0.060019955 -0.20731953 -0.2576261 0.044215698 0.047283668 0.020498889 -0.2715022 0.016368726 0.030024309 -0.032975152 -0.24828005 0.1025377 -0.37840164 -0.2546312 0.2321527 -0.017917763 0.28652215 -0.12002459 -0.20277718 0.14195381 -0.0035612036 0.20978907 -0.072013244 -0.17730741 0.14114596 -0.36613587 0.149782 -0.06682142 0.05141417 0.33310744 0.07834441 0.015878076 -0.1910466 0.6019191 0.050310165 -0.3607988 0.045692086 -0.10413928 0.28369567 -0.11039011 -0.062059984 -0.002778442 -0.04055526 -0.52528757 -0.12512751 0.27055192 -0.11003512 0.5800807 -0.11340485 -0.04873584 0.16728036 0.2617167 -0.33255333 -0.02501574 -0.0698579 0.039514687 0.28102544 -0.18682139 -0.10950161 -0.057200693 -0.18271069 0.059749667 0.14698184 0.1138732 0.20161647 -0.2689575 -0.062254597 0.046782468 0.47461063 0.25795007 -0.10334197 -0.04886442 0.095890194 0.19857737 -0.084594496 -0.08052756 0.28190738 0.33389488 0.18990405 0.14100075 0.009258104 -0.22034647 0.2010781 -0.4781899 -0.101959474 0.31514883 0.15451355 -0.43729553 0.13622116
one -0.0576738 0.15600234 -0.63179857 0.48703912 -0.10588933 -0.16090016 -0.027103506 0.1087522 0.061149117 0.07640456 0.07339675 -0.063193545 -0.21408485 -0.25933456 0.04580252 0.045780778 0.030575383 -0.2761676 0.017524792 0.03377788 -0.041006222 -0.2610807 0.10951701 -0.38850746 -0.26534104 0.24159911 -0.008131334 0.2902644 -0.124824084 -0.20421942 0.14008705 -0.0067421068 0.21776175 -0.06811943 -0.17906027 0.14199634 -0.3844938 0.15289913 -0.07927744 0.05089337 0.3359599 0.08006226 0.018455252 -0.19625176 0.6189014 0.04777962 -0.36949232 0.047666743 -0.10673611 0.2887242 -0.1153236 -0.07593146 -0.010768682 -0.04332905 -0.5344222 -0.13065848 0.2721457 -0.117487855 0.5931411 -0.11616405 -0.055974275 0.17438565 0.25759116 -0.34668338 -0.029366603 -0.05948878 0.03336524 0.27953592 -0.19499896 -0.11379124 -0.052160356 -0.19111262 0.05583 0.15230285 0.118723646 0.20333403 -0.26305372 -0.060361434 0.038866706 0.48784313 0.27035752 -0.094725326 -0.04818379 0.104435876 0.20407867 -0.080900945 -0.09185124 0.28377795 0.32548627 0.20290852 0.14492378 0.0107827755 -0.22503126 0.2075273 -0.49220407 -0.1164521 0.32625484 0.1638438 -0.4484477 0.1307038
loved 0.001153753 -0.033655602 -0.00074249716 -0.009842913 0.026462127 0.04841169 -0.034051616 0.0045178314 0.0155428415 0.007966548 0.0051692235 -0.0036625883 -0.015890304 -0.0075017763 -0.023230594 0.0072829262 0.008650933 -0.016441494 0.015937682 0.03344639 0.03162385 -0.027995642 -0.010597342 0.016126141 0.06931144 0.0051387264 -0.014302736 -0.00438052 0.020113498 0.0024817097 0.0067339176 0.022555202 -0.048382595 -0.0032916784 -0.0121260835 0.014659375 0.028236361 0.0004078532 0.01583208 -0.03874396 -0.0036072175 0.0062501184 0.044392873 -0.04335413 -0.007381444 0.013556611 0.020730108 0.024526255 -0.008046914 -0.006088548 -0.028316297 0.0019768954 -0.0005106465 0.018598694 0.027118372 0.003525641 0.011477314 -0.017232113 -0.025161553 -0.023214746 0.03188365 -0.005643443 -0.004642911 -0.008722901 0.03603151 -0.029665135 -0.00456871 0.016920114 -0.0034339838 0.005376075 0.004312969 0.0036444312 0.025342466 0.010687732 -0.01634921 0.023800071 0.014287259 0.050129462 -0.008619253 -0.037011046 -0.06368383 0.00671803 -0.012311714 -0.0035385976 -0.00948492 0.010314639 0.03442709 0.030060051 0.044066146 -0.053868406 -0.007953527 0.010605254 0.020409994 -0.0050102696 -0.037115294 0.00088605145 -0.003044134 -0.02633196 0.034073442 0.026337545
new -0.07919136 0.16700554 -0.71243876 0.54919344 -0.11628408 -0.1942488 -0.036342286 0.116186045 0.05650348 0.0911514 0.09119841 -0.06937631 -0.24760734 -0.27682948 0.041136052 0.04368165 0.013559754 -0.29600567 0.01895673 0.04476945 -0.044611886 -0.29340595 0.11329635 -0.446142 -0.3041265 0.26187208 -0.0186147 0.3274949 -0.14713648 -0.23493902 0.15773846 -0.00060836726 0.249243 -0.07034157 -0.20753697 0.16705853 -0.44946575 0.1711689 -0.08504943 0.07636288 0.37998098 0.08863797 0.016456077 -0.2127459 0.6795574 0.05670866 -0.41347906 0.06237877 -0.1262406 0.343622 -0.12874477 -0.07462331 -0.007479382 -0.03726133 -0.6150593 -0.1673835 0.30555025 -0.10973494 0.6838337 -0.12306564 -0.055734962 0.19825299 0.27781108 -0.3990007 -0.043671288 -0.059361827 0.026928749 0.3149315 -0.21759921 -0.12925158 -0.05758381 -0.21205713 0.06918054 0.16181852 0.12235898 0.21496437 -0.2767445 -0.057220466 0.052501295 0.5631356 0.2897462 -0.11338031 -0.055486925 0.11394378 0.22923477 -0.0870955 -0.104838245 0.32497755 0.3831029 0.2194361 0.15344593 0.033058897 -0.25047117 0.23929279 -0.5580119 -0.14021987 0.3780342 0.20080943 -0.54018635 0.15745384
someone -0.009809658 0.14033495 -0.54074323 0.36671633 -0.12454208 -0.1368293 0.034326028 0.09183628 0.06323898 0.07966576 0.015149227 -0.030391164 -0.18230706 -0.17965162 0.090384394 0.030242976 0.0037831152 -0.22384055 0.025456565 0.10444456 -0.042707894 -0.209157 0.07972172 -0.30226564 -0.26138097 0.18159764 0.011552549 0.22708137 -0.11075747 -0.11771765 0.10070407 -0.025967626 0.25367472 0.012185882 -0.12846318 0.13934107 -0.3507071 0.1122352 -0.060558267 0.06243577 0.2848627 0.05541142 0.0039171414 -0.1874208 0.51111364 0.02217801 -0.29671457 0.056725316 -0.070323214 0.24187633 -0.09618757 -0.09232177 -0.038287792 -0.034211542 -0.42774945 -0.11191216 0.20739636 -0.08347654 0.52256805 -0.045547735 -0.08821513 0.15873185 0.2793972 -0.26696423 -0.041674096 -0.013830113 -0.013018522 0.23028226 -0.13732788 -0.099786505 -0.08093473 -0.14053981 0.059557922 0.17148213 0.062181536 0.15150566 -0.18386507 -0.060051486 0.011704611 0.398598 0.23920187 -0.088055156 -0.006628237 0.10428234 0.13759212 -0.036476307 -0.11111772 0.18470654 0.22781612 0.2003296 0.14795941 -0.040071316 -0.14884031 0.094121605 -0.3550217 -0.03607825 0.30016676 0.10163873 -0.3803463 0.122611776
today -0.07441771 0.21645199 -0.7897632 0.5920706 -0.1553373 -0.2386082 -0.021754242 0.117518835 0.016917739 0.09696228 0.10632682 -0.07651869 -0.29433304 -0.32560235 0.08683856 0.07008758 0.052183274 -0.3680247 0.031032845 -0.0098466985 -0.043489438 -0.29909012 0.1364715 -0.45392257 -0.33659244 0.35522977 0.031835273 0.3345679 -0.1300604 -0.29687116 0.21554673 -0.004605089 0.29967853 -0.12177266 -0.23681948 0.17810012 -0.41313538 0.18213667 -0.14221291 0.013184665 0.39511397 0.07494357 -0.0041906238 -0.19473514 0.7542289 0.083606854 -0.43415558 0.05868193 -0.1164218 0.36345696 -0.11998456 -0.091159835 -0.0012471721 -0.050834946 -0.72290224 -0.15473944 0.34791 -0.10156896 0.69367546 -0.18944862 -0.08264049 0.19959266 0.28342855 -0.45922506 -0.04877214 -0.041803148 0.039955232 0.30064112 -0.24715966 -0.16001603 -0.095364094 -0.25615385 0.058218 0.17157674 0.13435818 0.2492079 -0.3322577 -0.058307473 0.08117708 0.58378905 0.37237063 -0.124464825 -0.04182119 0.12031004 0.29760954 -0.09495501 -0.100214586 0.3881403 0.40836534 0.27500218 0.14253695 0.028655333 -0.2898479 0.18910211 -0.5797944 -0.2299139 0.41960463 0.25958472 -0.58987695 0.13933763
knowing -0.030007515 0.058371436 -0.21456017 0.18230137 -0.030447742 -0.084357224 0.012358158 0.080449276 0.04596782 0.041967776 0.04195668 0.01004334 -0.07143499 -0.05536647 -0.028339762 0.029021429 0.02079744 -0.09759422 0.005053009 0.0031756784 -0.0595975 -0.09685839 0.03674898 -0.10835005 -0.0988914 0.07146263 0.014150859 0.07891243 -0.03134106 -0.049032968 0.062081244 0.030171819 0.0713785 -0.015366915 -0.05564521 0.0375406 -0.15615693 0.06256507 -0.04051103 0.054426838 0.12695199 0.030950032 0.029091869 -0.039682023 0.22455372 -0.00265963 -0.11914376 -0.028021593 -0.026488693 0.09422982 -0.056151446 -0.05889337 -0.000662567 -0.02692909 -0.16431728 -0.031067904 0.08564115 -0.027755903 0.20892754 -0.04863025 -0.031442583 0.064227656 0.08939369 -0.10062249 -0.013494054 -0.019738404 0.008189978 0.09649822 -0.077856086 -0.043088492 0.011027757 -0.05246684 -0.0075015426 0.04082821 0.06702134 0.06844956 -0.07725876 -0.043522958 0.027181087 0.18960571 0.102127396 -0.024777172 -0.0249581 0.03803205 0.067937285 -0.046003517 -0.052430995 0.09537308 0.11159884 0.09444459 0.057924736 -0.022729497 -0.07775033 0.10311101 -0.15169989 -0.052685745 0.12801255 0.058853414 -0.16423038 0.009286126
lil -0.024845699 0.06900469 -0.2200795 0.20628181 -0.034697074 -0.08129461 0.014655224 0.08844611 0.05159472 0.044938765 0.045808848 0.0004320886 -0.07905158 -0.059821475 -0.03748951 0.03138519 0.012569722 -0.10180194 0.00034924466 0.0046726097 -0.06423734 -0.09175517 0.03591633 -0.10436916 -0.10386155 0.074800655 0.014868305 0.07956756 -0.036633506 -0.04915089 0.07589966 0.035397254 0.07059845 -0.010168279 -0.06459036 0.03380147 -0.17659484 0.06669788 -0.05159959 0.06123881 0.1357541 0.04151347 0.03700827 -0.043559987 0.23758265 -0.0023800998 -0.14411895 -0.03827487 -0.030016672 0.1137658 -0.051144183 -0.05021291 0.014102385 -0.023407176 -0.1657123 -0.03366403 0.08669405 -0.032516666 0.21240744 -0.042139165 -0.033161018 0.06705488 0.08449045 -0.10982603 -0.020755164 -0.03538592 0.017063525 0.10727079 -0.073484614 -0.05036837 0.004416484 -0.04443007 -0.011808201 0.048810296 0.07432581 0.07787324 -0.0654007 -0.052418914 0.02133478 0.19766685 0.11031006 -0.017689427 -0.03608497 0.042817023 0.08369597 -0.048728183 -0.063449144 0.1148054 0.13134515 0.09596191 0.059437074 -0.031708725 -0.0790114 0.12775837 -0.1646164 -0.06575335 0.13064072 0.05705944 -0.15983844 0.0071161403
make -0.06622457 0.17486724 -0.7028357 0.5590071 -0.114595644 -0.18156342 -0.048421178 0.114796035 0.08681735 0.0864773 0.09370534 -0.064259194 -0.25006944 -0.2911042 0.04956625 0.043684203 0.035078675 -0.31095544 0.012420832 0.041292574 -0.05414147 -0.2994433 0.1271901 -0.44476226 -0.29330423 0.26736876 -0.013781786 0.33640066 -0.13877715 -0.22818296 0.1614521 -0.0149356 0.23956218 -0.081382975 -0.20433632 0.15482758 -0.43281323 0.17414364 -0.079366684 0.051999032 0.38027388 0.086737685 0.017695315 -0.22039425 0.70484793 0.044575162 -0.42230758 0.053980503 -0.12776144 0.3308397 -0.13014427 -0.07847345 -0.013601252 -0.0451564 -0.60447365 -0.14497904 0.31804326 -0.1391998 0.67125326 -0.1264882 -0.057246067 0.1924811 0.3014733 -0.38934582 -0.032086834 -0.06740044 0.036522083 0.3232711 -0.22502507 -0.113080814 -0.072336845 -0.21216282 0.07215242 0.1693275 0.1415408 0.2314446 -0.30952525 -0.07397103 0.056608636 0.5611128 0.30697948 -0.1044451 -0.075403854 0.11010521 0.23900746 -0.08946252 -0.09445751 0.32546735 0.37901014 0.22110157 0.16598429 0.03556582 -0.256859 0.2335958 -0.56983954 -0.1334935 0.37093404 0.19708204 -0.5063862 0.15386137
hi -0.057093795 0.15186079 -0.6250656 0.48018658 -0.11022074 -0.15995917 -0.03419401 0.1089419 0.059033796 0.079833545 0.07334703 -0.06556328 -0.21491364 -0.25286448 0.038294524 0.046104386 0.028613925 -0.26600412 0.013230578 0.0345097 -0.03898789 -0.26071462 0.10329165 -0.38531458 -0.27335775 0.2399476 -0.007833424 0.28962734 -0.12299881 -0.20296133 0.14764719 -0.012576412 0.22310653 -0.0616455 -0.18427008 0.13935402 -0.3832207 0.1544464 -0.07645796 0.044590734 0.33423787 0.075224206 0.02065058 -0.19779527 0.6160861 0.04639218 -0.36135224 0.0528435 -0.09584128 0.2889055 -0.10842196 -0.06743359 -0.0053728437 -0.04433902 -0.5355751 -0.13545504 0.28070343 -0.11946331 0.58519757 -0.113965705 -0.053834524 0.1705838 0.25248528 -0.34220934 -0.0262564 -0.06300593 0.02558371 0.28711995 -0.19123554 -0.10761331 -0.052120596 -0.18290824 0.06215117 0.15220259 0.110074915 0.20364542 -0.2612587 -0.06364535 0.04664387 0.4936326 0.2655144 -0.095886104 -0.055812262 0.10087963 0.20566276 -0.07679176 -0.091114834 0.28185284 0.33286157 0.19668123 0.14243418 0.017190134 -0.2213916 0.19775105 -0.4823284 -0.112812035 0.33054802 0.16913603 -0.4441834 0.13449226
ill -0.07691603 0.1676199 -0.67442846 0.53654426 -0.10970583 -0.18662375 -0.065655 0.117344774 0.08778709 0.091235586 0.078027934 -0.049921032 -0.22352268 -0.28015634 0.049662232 0.032931704 0.049009595 -0.2870216 0.016146326 0.041384872 -0.052374884 -0.29225785 0.13964589 -0.43802035 -0.27442104 0.2395902 -0.011565405 0.32890365 -0.13951372 -0.23133798 0.1648872 -0.020375896 0.21987452 -0.0756008 -0.17797211 0.1454066 -0.40234438 0.16651313 -0.06233422 0.060537763 0.35372886 0.09294569 0.014407713 -0.2032843 0.6916589 0.035240863 -0.39880592 0.059699766 -0.12528478 0.31110525 -0.122018255 -0.07538985 -0.010735079 -0.032631464 -0.5713784 -0.13173042 0.3203084 -0.14426513 0.6461238 -0.124131985 -0.048509344 0.18548296 0.3069771 -0.36462438 -0.021748025 -0.061250027 0.038714617 0.29416865 -0.21959953 -0.09669207 -0.068380564 -0.2031699 0.08467121 0.1623502 0.13103075 0.21918052 -0.30277568 -0.08089254 0.04137833 0.5407256 0.29767376 -0.08354206 -0.08518153 0.09825594 0.240113 -0.08964798 -0.10397869 0.2976177 0.3652821 0.21827391 0.16271973 0.043659464 -0.2338344 0.22960599 -0.55632955 -0.13102132 0.3398447 0.19018528 -0.4918851 0.14478865
yelled -0.07104509 0.22803779 -0.7812988 0.5807589 -0.17361833 -0.2588037 -0.015432373 0.100736216 -0.02474822 0.09457427 0.09674993 -0.08032579 -0.29451144 -0.32274887 0.09931278 0.08075853 0.060331874 -0.3867739 0.039461426 -0.037757277 -0.041943636 -0.2765304 0.12586182 -0.4247885 -0.33068082 0.3783958 0.060698412 0.32914153 -0.121640205 -0.30973345 0.22218964 -0.0012055747 0.31329018 -0.14761224 -0.2503263 0.17385009 -0.36913368 0.18650511 -0.16513371 -0.01894318 0.38457602 0.050939385 -0.016283147 -0.16674627 0.7446172 0.09627215 -0.4300526 0.0689943 -0.10873696 0.36690474 -0.102964364 -0.08220922 -0.013672966 -0.03683804 -0.73950505 -0.13267913 0.35239816 -0.070448026 0.6406092 -0.20238432 -0.07065237 0.18343543 0.2488583 -0.4780514 -0.066587575 -0.018171538 0.032593183 0.2562608 -0.23793685 -0.18304712 -0.10632525 -0.27567226 0.049636416 0.14907165 0.13011204 0.25064626 -0.33119038 -0.041679416 0.09223528 0.5445266 0.38645542 -0.13495387 -0.029230066 0.121539555 0.3152968 -0.086150184 -0.08971914 0.39749858 0.39257556 0.28765112 0.12531425 0.038636625 -0.2844981 0.14711222 -0.53397435 -0.27729124 0.410023 0.28700796 -0.5869962 0.12004529
dont -0.06347733 0.14759383 -0.6224948 0.47594133 -0.09931695 -0.15277945 -0.03507667 0.10333322 0.05285566 0.078074984 0.08099576 -0.06325961 -0.22072628 -0.24910894 0.04680223 0.049192823 0.024467409 -0.2672476 0.015084835 0.035358958 -0.036040734 -0.2495351 0.10193027 -0.38225284 -0.26435074 0.23927858 -0.014431969 0.28579524 -0.12764427 -0.20109394 0.14075117 -0.00077815715 0.22016189 -0.06361099 -0.1741261 0.13986321 -0.37533313 0.1540271 -0.07011705 0.0431242 0.3362947 0.08003832 0.0101851085 -0.1950006 0.6095257 0.049444433 -0.35967705 0.04288604 -0.09412763 0.28739184 -0.10961692 -0.06832125 -0.006848957 -0.042368125 -0.5298853 -0.13103803 0.26664364 -0.115418375 0.58411217 -0.11897022 -0.05096265 0.17054927 0.25026572 -0.33696005 -0.028552953 -0.054399695 0.028442448 0.28224158 -0.1936326 -0.104453236 -0.060087178 -0.18122146 0.05966378 0.14287233 0.11042595 0.2000679 -0.25872117 -0.06810503 0.044105973 0.48658544 0.2610077 -0.094882764 -0.05132375 0.10000327 0.20391957 -0.06964941 -0.086043425 0.288274 0.3211957 0.2011457 0.13704905 0.017004516 -0.21563534 0.20247285 -0.4863224 -0.11693613 0.3180041 0.16711442 -0.4492675 0.13136216
thank -0.04553546 0.13002144 -0.52955085 0.40230405 -0.0917952 -0.12802264 -0.033875663 0.08418802 0.048061445 0.06593089 0.06934263 -0.055412218 -0.1857114 -0.21517889 0.030951595 0.041221634 0.019111585 -0.2317124 0.016264811 0.02983436 -0.026858082 -0.2169158 0.08585063 -0.3252016 -0.22522202 0.20446876 -0.006557781 0.24445856 -0.10614725 -0.17124516 0.122493595 -0.0061255465 0.18606989 -0.053392503 -0.14866824 0.1207988 -0.31589782 0.12591004 -0.06575123 0.046993107 0.28847775 0.06333064 0.017692294 -0.16473445 0.51262295 0.04378778 -0.3068614 0.03479806 -0.0854966 0.24475558 -0.0994708 -0.053688418 -0.007983454 -0.033933446 -0.44173062 -0.108741514 0.23457374 -0.09228698 0.4929619 -0.100173526 -0.044048637 0.14507881 0.2179562 -0.28578252 -0.029981613 -0.05249017 0.023809196 0.24254066 -0.16337 -0.09419574 -0.046789374 -0.1529649 0.055027828 0.1237551 0.09929509 0.1695777 -0.21828088 -0.053989165 0.03413288 0.4087843 0.22464615 -0.081177905 -0.042636126 0.08223672 0.1734629 -0.06833287 -0.07725384 0.23896347 0.2759597 0.16313013 0.1158207 0.010369255 -0.18061823 0.17608705 -0.40636605 -0.09010868 0.26970154 0.14359054 -0.3767402 0.118214004
maywardforvivov -0.04337588 0.11797512 -0.5212436 0.38932186 -0.077176586 -0.11062285 -0.037001725 0.085553005 0.0698318 0.05468811 0.096546635 -0.06889647 -0.15763168 -0.23210984 0.009002465 0.034215376 -0.0034205269 -0.23351628 0.051628824 0.041076135 -0.047844425 -0.22594844 0.07008333 -0.3332453 -0.23555475 0.20833452 -0.011605966 0.2589235 -0.12650687 -0.16803123 0.1146464 -0.021203779 0.17391896 -0.03457605 -0.19000591 0.1291957 -0.2641983 0.14290057 -0.021888936 0.030236999 0.2898284 0.086559504 -0.005804117 -0.21108261 0.5063704 0.056041036 -0.31956425 0.03404715 -0.05248232 0.2372751 -0.056458067 -0.07713879 0.004276165 -0.024156194 -0.48837355 -0.15373018 0.2624493 -0.113018684 0.47555026 -0.07427423 -0.03270928 0.16513069 0.20993632 -0.26499075 -0.07337876 -0.058031287 0.014669233 0.29780594 -0.14887686 -0.08492492 -0.06802726 -0.18342657 0.06444747 0.15335576 0.0543275 0.15510976 -0.22226268 -0.08785116 0.0027809802 0.41073462 0.23275599 -0.079068 -0.06813996 0.08425876 0.18770295 -0.09830507 -0.101001486 0.26869443 0.2637373 0.20484829 0.10279293 0.04710249 -0.19206263 0.1494961 -0.40974465 -0.088605784 0.30901274 0.16669296 -0.36103985 0.11236386
soon -0.0333759 0.07732187 -0.31792146 0.24008721 -0.04351962 -0.08352586 -0.018446574 0.05163443 0.03324948 0.038197752 0.028277148 -0.020594427 -0.12018885 -0.124003194 0.0151624 0.016261386 0.0042526177 -0.1434668 0.023727378 0.036526024 -0.030352075 -0.12237443 0.06033414 -0.19774303 -0.144101 0.11111046 -0.011179343 0.15558854 -0.06530212 -0.101790845 0.08232421 -0.00927743 0.111169845 -0.03517119 -0.07792218 0.06578359 -0.20519865 0.090457276 -0.040469542 0.023489404 0.16688101 0.028250651 0.00060037954 -0.096941166 0.30320734 0.029933186 -0.18952435 0.03182371 -0.037075467 0.13746813 -0.05319479 -0.035146143 -0.009667878 -0.014694415 -0.25999138 -0.058172178 0.14606105 -0.059033718 0.29135916 -0.06997075 -0.026012657 0.09339255 0.14287353 -0.17352505 -0.030970706 -0.023996614 0.013498101 0.15515134 -0.10057674 -0.057747036 -0.039474595 -0.1019939 0.030826258 0.086780824 0.06802423 0.10188704 -0.13365379 -0.041705422 0.017247373 0.2453285 0.13414429 -0.052825227 -0.032892883 0.048058704 0.09695883 -0.031747676 -0.0456381 0.13184795 0.1572041 0.10698346 0.08519877 0.0023862151 -0.10480007 0.08668247 -0.24143063 -0.04244549 0.17055823 0.07503857 -0.22951835 0.07187155
birthday -0.052561905 0.12439735 -0.53835326 0.41934213 -0.06456203 -0.1480256 -0.048203368 0.08917058 0.055271946 0.04951801 0.064088024 -0.031793386 -0.17846338 -0.24663255 0.042259395 0.029185005 0.007368364 -0.20613186 0.019475097 0.007508121 -0.0046287808 -0.19867364 0.07703913 -0.36210245 -0.24102549 0.21621166 -0.02296357 0.26555815 -0.14160532 -0.18617076 0.1484255 0.012264138 0.17451873 -0.099563636 -0.15452558 0.10445567 -0.36324874 0.13298143 -0.08375074 0.0636778 0.3050418 0.038723923 -0.004008174 -0.16480763 0.5482891 0.033108674 -0.3075129 0.028378105 -0.08711354 0.23609763 -0.08342171 -0.0535744 -0.00079200225 -0.050683938 -0.46902964 -0.12507291 0.2266912 -0.093325816 0.5646143 -0.08761344 -0.043928716 0.16409555 0.22670971 -0.33130065 -0.060999636 -0.041998044 0.03869839 0.241311 -0.189464 -0.102902114 -0.021461831 -0.17723973 0.041687716 0.12034749 0.10042988 0.18561327 -0.23873769 -0.08362797 0.03399371 0.467051 0.19689122 -0.08379212 -0.026015477 0.09927277 0.20056087 -0.05694763 -0.060444236 0.27195585 0.2532825 0.1793641 0.13737148 0.03851999 -0.18443051 0.2193514 -0.43420357 -0.11331459 0.28695738 0.14593467 -0.4225401 0.139063
never -0.043143906 0.12971628 -0.5097628 0.391877 -0.071844295 -0.11990677 -0.019741863 0.0755973 0.054135237 0.065311365 0.056808606 -0.045676656 -0.18298006 -0.19802791 0.028905978 0.042060297 0.024064321 -0.2296581 0.0085215345 0.03864109 -0.03390398 -0.20388123 0.0783604 -0.32023075 -0.2147263 0.18785207 -0.0077280225 0.22517264 -0.100428894 -0.16495669 0.104539104 -0.0031890166 0.16935618 -0.061090402 -0.15307471 0.11636434 -0.3057957 0.12996748 -0.050254624 0.03547669 0.27167824 0.0689223 0.03020488 -0.15403143 0.48111716 0.043004062 -0.29819843 0.044659957 -0.08566426 0.23304798 -0.10095606 -0.067296006 -0.007227806 -0.021971373 -0.42471418 -0.10556286 0.22257265 -0.10300668 0.46256167 -0.088394925 -0.045783743 0.12914802 0.21377772 -0.26836085 -0.0137545355 -0.039774574 0.020474575 0.2289733 -0.14435865 -0.079169184 -0.04984057 -0.14941399 0.057286605 0.12188536 0.09133013 0.16236421 -0.2125155 -0.037253574 0.05032408 0.39294875 0.2240394 -0.08767906 -0.044044383 0.08314326 0.15272853 -0.06084968 -0.05490031 0.24520652 0.26011366 0.1630986 0.10278938 0.02541394 -0.1683633 0.16172548 -0.3934654 -0.09441631 0.25547963 0.1237389 -0.35474685 0.10528214
hug 0.007687641 0.073270075 -0.29518625 0.18365397 -0.080142684 -0.07162975 0.03175892 0.05723477 0.043910164 0.048170574 -0.0019338471 -0.016926723 -0.0839019 -0.094469205 0.058666687 0.008926056 0.00011833621 -0.12537187 0.01289766 0.07183995 -0.021766866 -0.112002805 0.050494332 -0.16526997 -0.14470667 0.1025397 0.013116091 0.12924321 -0.06591993 -0.058829375 0.04868646 -0.02301608 0.15430208 0.021219978 -0.0715644 0.084380396 -0.19765557 0.060056575 -0.034398187 0.038738865 0.16175775 0.03183327 0.0025227198 -0.11292958 0.2782692 0.019675467 -0.16756494 0.036824938 -0.027243659 0.12863706 -0.05672874 -0.056880962 -0.025439994 -0.020898229 -0.23823 -0.056037486 0.1013912 -0.05054026 0.29494017 -0.014304771 -0.05599562 0.09780991 0.15975651 -0.14585608 -0.019775169 -0.006801734 -0.019498607 0.12184568 -0.071938284 -0.05948966 -0.045272056 -0.0675233 0.037106775 0.10785247 0.031122847 0.07716672 -0.09459182 -0.030040255 0.0044815578 0.20466346 0.12745309 -0.047725864 0.0042313095 0.06269823 0.07787822 -0.016552752 -0.06808299 0.09187337 0.117715105 0.10894874 0.089314856 -0.030437607 -0.08288841 0.034005538 -0.17374007 -0.0016886131 0.16348888 0.05189609 -0.20962948 0.076189965
time -0.06948795 0.1793597 -0.7303235 0.5636534 -0.12702169 -0.17745745 -0.04354353 0.12262947 0.07489638 0.09251909 0.087357946 -0.07093041 -0.2532151 -0.29530245 0.050958104 0.053119637 0.032957043 -0.3214575 0.02338482 0.0392697 -0.04742958 -0.29937246 0.12291298 -0.46101403 -0.31114846 0.2753545 -0.011831035 0.33676755 -0.15037695 -0.23874421 0.17385218 -0.0073277364 0.2568771 -0.08144037 -0.20888911 0.17045647 -0.44591343 0.18001963 -0.08451811 0.053949103 0.40009367 0.09454715 0.023725884 -0.23537356 0.72294617 0.063303225 -0.42996907 0.050685495 -0.12225753 0.34771597 -0.13123392 -0.08332285 -0.008242405 -0.051962495 -0.6287456 -0.16052844 0.3257729 -0.14071712 0.68965614 -0.12766813 -0.06250737 0.20202322 0.30674416 -0.4004923 -0.031929668 -0.06551096 0.04038933 0.3310137 -0.22532904 -0.122364044 -0.06818802 -0.21939686 0.06656022 0.17124034 0.13266389 0.23326017 -0.30660444 -0.08031972 0.05253552 0.57617635 0.3091878 -0.11563612 -0.058692493 0.12025191 0.2437989 -0.08857404 -0.09965883 0.33389264 0.3913923 0.23517033 0.16143526 0.026106408 -0.26447588 0.24096534 -0.57817566 -0.12859519 0.37918565 0.19941543 -0.5248657 0.1566078
back -0.05661544 0.16269995 -0.6564525 0.5052476 -0.1052022 -0.15586342 -0.039923813 0.10613087 0.059943497 0.08519855 0.08251944 -0.05941404 -0.2278992 -0.2624223 0.039362755 0.041444372 0.026135108 -0.28017673 0.014148259 0.033068493 -0.036968652 -0.26480705 0.10437033 -0.41168013 -0.28436202 0.24330375 -0.019277416 0.30097544 -0.13385195 -0.2115053 0.15421471 -0.006444931 0.23046653 -0.07021006 -0.18556738 0.15015236 -0.3965497 0.15332204 -0.070250034 0.047559556 0.3574807 0.08388383 0.020455156 -0.20226806 0.6370498 0.047021657 -0.38020837 0.044909466 -0.10938188 0.3096377 -0.11285484 -0.06818967 -0.008531317 -0.045333933 -0.5549127 -0.13966234 0.28307548 -0.125719 0.6121844 -0.112001374 -0.0603577 0.18413168 0.2692272 -0.35986477 -0.029656526 -0.06059428 0.036250006 0.29116735 -0.19752833 -0.10602941 -0.053548936 -0.1937828 0.056925267 0.15705879 0.12072365 0.2104298 -0.26992914 -0.06319633 0.050660472 0.5139244 0.27436405 -0.105658695 -0.053527802 0.10579874 0.2095167 -0.074122675 -0.08425492 0.29987553 0.34122783 0.2077503 0.1455511 0.016841436 -0.23169936 0.21756311 -0.5146527 -0.11780588 0.33525306 0.16927935 -0.47370696 0.13786756
want -0.055393033 0.13478382 -0.5664119 0.43782976 -0.090951994 -0.14011814 -0.03135998 0.091919005 0.055162217 0.07017148 0.064671054 -0.05358268 -0.20407532 -0.22759892 0.043735415 0.041252576 0.020384112 -0.24362187 0.020074116 0.03901676 -0.03527622 -0.22628585 0.09592784 -0.3548326 -0.24599211 0.21825062 -0.010721437 0.25439954 -0.11234437 -0.18643911 0.13159028 -0.007213069 0.19823816 -0.06292647 -0.16515607 0.12913874 -0.33919087 0.13776517 -0.06849015 0.048170846 0.3082146 0.074428715 0.014251625 -0.17475076 0.5520567 0.04564669 -0.3282725 0.039125837 -0.08932252 0.26223093 -0.105483696 -0.060582887 -0.0073594335 -0.04240334 -0.48375782 -0.11898365 0.24709576 -0.10421514 0.53323376 -0.10603579 -0.051812306 0.15303293 0.23642208 -0.31683174 -0.02594395 -0.053706016 0.025344208 0.2563011 -0.17035422 -0.10323532 -0.053078804 -0.16280483 0.050689865 0.13298294 0.10997586 0.1800697 -0.24047208 -0.051381946 0.045857955 0.44335794 0.24212343 -0.08973469 -0.042927507 0.09688306 0.18380545 -0.07167028 -0.07657639 0.25942692 0.30260897 0.18003874 0.12786618 0.012790916 -0.19594625 0.17861432 -0.44067246 -0.10006085 0.29225457 0.1560241 -0.40318382 0.122193746
around -0.026104504 0.17225094 -0.63485736 0.5025962 -0.1260583 -0.0964671 -0.03926119 0.12721457 0.050661992 0.086784 0.10141691 -0.09643607 -0.26642245 -0.22427516 0.07275262 0.05316611 -0.00090845214 -0.29638115 -0.012684408 0.021592293 -0.010881757 -0.26308277 0.092414536 -0.4171709 -0.29879016 0.22545421 -0.064651765 0.3030337 -0.114540584 -0.2219385 0.14072073 0.013885578 0.23492369 -0.044375554 -0.21148658 0.15665069 -0.40829563 0.151752 -0.0721277 0.07931923 0.38090718 0.06711823 0.018921312 -0.1774658 0.6113723 0.08354421 -0.4014713 0.039114606 -0.14880747 0.31528315 -0.1557829 -0.04646805 -0.009370984 -0.032875217 -0.55805707 -0.14293101 0.27041304 -0.16593982 0.59151125 -0.106420085 -0.09823318 0.17254482 0.25596356 -0.30383152 -0.002889413 -0.049975954 0.029564241 0.27951333 -0.18175603 -0.06959684 -0.052874982 -0.18027923 0.090340234 0.121875525 0.13192482 0.21735749 -0.27993968 -0.04859151 0.06628786 0.49088943 0.29323438 -0.08011685 -0.051059213 0.14022209 0.19706059 -0.08128073 -0.079281636 0.31512982 0.35492948 0.18235497 0.15732569 0.012254948 -0.21818794 0.2168704 -0.5240999 -0.08982216 0.30718765 0.15334725 -0.45214286 0.15586716
sleep 0.01256514 0.10107007 -0.37368014 0.24097417 -0.105182074 -0.09163192 0.042993136 0.0787617 0.056281686 0.058076367 -0.012515013 -0.022465741 -0.111913376 -0.124799415 0.08259108 0.008470861 0.006797662 -0.15060283 0.031581007 0.094483785 -0.035867102 -0.13253324 0.052478824 -0.19684261 -0.1938806 0.11896501 0.006850931 0.15525639 -0.07519687 -0.07125654 0.05909401 -0.034349877 0.19691227 0.029627457 -0.08431592 0.10642745 -0.24513467 0.07703401 -0.048420813 0.060655702 0.20037587 0.03423585 -0.003121305 -0.13188362 0.34601697 0.015195281 -0.20550188 0.046837907 -0.043452777 0.15613274 -0.071318984 -0.069641925 -0.035862528 -0.014209479 -0.28327897 -0.072635695 0.12918547 -0.0499991 0.3623679 -0.016660856 -0.07867898 0.12582919 0.1999095 -0.17862643 -0.029177211 0.0008099545 -0.022615552 0.15230791 -0.081919305 -0.0720314 -0.06766799 -0.09194598 0.049072083 0.13862284 0.03340071 0.093105935 -0.12250139 -0.050177574 0.0034557171 0.26234373 0.16166544 -0.07384655 0.0034565832 0.074622706 0.09017674 -0.013015824 -0.088892706 0.0996534 0.13754511 0.14608304 0.10252885 -0.044768147 -0.087870024 0.038106736 -0.21837747 0.0031017768 0.21494542 0.057648133 -0.26714438 0.09758246
handshake -0.024227183 0.110867046 -0.4181966 0.329613 -0.081615694 -0.06759094 -0.03471165 0.07310067 0.043319263 0.049162015 0.06960387 -0.06652223 -0.16342275 -0.1540641 0.048510157 0.032269817 -0.0033004628 -0.18736893 -0.0055107884 0.021118343 -0.011481925 -0.17486498 0.062012713 -0.2812958 -0.19762634 0.15058792 -0.039434142 0.20504263 -0.087386094 -0.15108103 0.10139257 0.008049094 0.15464896 -0.040719215 -0.13824871 0.10384488 -0.25782657 0.099731416 -0.051047064 0.041303445 0.2458667 0.04708802 0.011459527 -0.12845479 0.39394423 0.058446288 -0.26483732 0.02762638 -0.09552524 0.20943718 -0.100351 -0.026959443 -0.005447727 -0.03489279 -0.371345 -0.10323622 0.18273735 -0.09379402 0.39428392 -0.07021857 -0.06073683 0.11865241 0.17351875 -0.21261325 -0.000218693 -0.02900512 0.013552357 0.19146875 -0.11913155 -0.046433188 -0.043367777 -0.118470594 0.06015454 0.07646443 0.089135 0.13622417 -0.18569022 -0.037814558 0.045702435 0.32702553 0.194798 -0.0477022 -0.04082332 0.09277717 0.1364275 -0.05913542 -0.04654334 0.20706567 0.23159991 0.11710063 0.099457175 0.013231157 -0.13817576 0.14878754 -0.3402646 -0.062054276 0.20312347 0.11136571 -0.3002355 0.09235686
follow -0.05227257 0.15190522 -0.6003546 0.46878836 -0.100128844 -0.15686512 -0.029353553 0.104692146 0.059122577 0.080323614 0.0708822 -0.061468534 -0.20853345 -0.24520801 0.04001745 0.040487234 0.026439043 -0.26734015 0.01705482 0.04124218 -0.04146087 -0.24437836 0.096927464 -0.372882 -0.25916278 0.22875883 -0.012825814 0.27639645 -0.12685925 -0.19850445 0.14027391 0.00043129173 0.203052 -0.06058384 -0.17088044 0.140025 -0.36141852 0.14063378 -0.07360322 0.047029503 0.32406256 0.077803105 0.020740021 -0.18634513 0.59625256 0.048235297 -0.35258776 0.04900181 -0.102450706 0.28218135 -0.110724814 -0.06311728 -0.0047871806 -0.039512653 -0.5146409 -0.1239577 0.25995424 -0.11355372 0.5693295 -0.11490425 -0.05931407 0.17079309 0.25317636 -0.32863432 -0.024713304 -0.060109347 0.022650028 0.27530634 -0.18943742 -0.10234793 -0.05424111 -0.17665064 0.053813465 0.14035748 0.106930666 0.19827928 -0.2504924 -0.06166689 0.03499389 0.47305602 0.24854621 -0.097268 -0.053387824 0.099102035 0.19901201 -0.077161 -0.08348823 0.27462718 0.3224307 0.19935423 0.13067076 0.015259731 -0.20897831 0.20324428 -0.4749917 -0.11242336 0.31592932 0.15559846 -0.43053365 0.12981331
side -0.05511425 0.13837647 -0.5618464 0.4429088 -0.10381723 -0.13935755 -0.0245014 0.08243843 0.053516924 0.067776375 0.06970566 -0.053426754 -0.19425848 -0.23489831 0.036372036 0.046864226 0.018199999 -0.24855924 0.016832273 0.029111149 -0.029534621 -0.23110397 0.09396029 -0.34978276 -0.23801509 0.21385844 -0.011641082 0.25299385 -0.11978838 -0.18518072 0.12955773 -0.0069195083 0.18972592 -0.05239259 -0.16507456 0.13142703 -0.34734535 0.13078408 -0.06243034 0.05083483 0.30181518 0.06792776 0.01765437 -0.16732644 0.5496467 0.041741375 -0.32564092 0.040074743 -0.101319015 0.2605608 -0.09801643 -0.05981333 -0.010985629 -0.03335663 -0.47189048 -0.12814564 0.23696557 -0.09608482 0.52473277 -0.10088361 -0.053287614 0.14773627 0.23015906 -0.31877255 -0.020391434 -0.05664303 0.031270415 0.2517691 -0.17129923 -0.102324024 -0.048151724 -0.16399157 0.04731752 0.12845063 0.108340465 0.1832852 -0.23386924 -0.05486756 0.03546742 0.43694595 0.22505866 -0.09447564 -0.048140332 0.084628694 0.18193209 -0.06256058 -0.06584663 0.26605693 0.3056021 0.17957796 0.12340456 0.01631429 -0.2034215 0.18749775 -0.44447112 -0.09977129 0.294083 0.15250185 -0.4028248 0.12425953
trending -0.03850438 0.14132749 -0.5883806 0.44036385 -0.08640306 -0.12835102 -0.048546378 0.0820027 0.08780853 0.07814115 0.11202954 -0.06392405 -0.16926526 -0.2483861 0.0072714775 0.041268382 -0.0064681186 -0.25364113 0.059085872 0.05435398 -0.051830124 -0.2513273 0.06842913 -0.38838074 -0.27136406 0.23277187 -0.005250117 0.28210664 -0.14882423 -0.2036107 0.13656497 -0.027097948 0.17658271 -0.036842655 -0.2293484 0.14905629 -0.29274142 0.16476649 -0.014265631 0.027743477 0.3232854 0.105348155 -0.0051184264 -0.25394988 0.5599631 0.06097523 -0.35190216 0.029960915 -0.05552285 0.27224815 -0.06083885 -0.10522921 0.008059931 -0.006308675 -0.5461716 -0.18302985 0.30231342 -0.12248617 0.5281671 -0.08520216 -0.04152293 0.18757105 0.22423342 -0.29115602 -0.088724166 -0.06373619 0.021340795 0.34455034 -0.16238397 -0.07699836 -0.09596061 -0.22284567 0.07259288 0.17867035 0.04373644 0.1592132 -0.25268844 -0.105910584 -0.017124387 0.4694831 0.2667183 -0.07725193 -0.07918535 0.10127766 0.21961491 -0.11665832 -0.12022486 0.3169342 0.29538214 0.23050119 0.1168059 0.06317105 -0.20786428 0.15843031 -0.4536252 -0.10324227 0.3424225 0.1879109 -0.39520267 0.1131709
always -0.05598089 0.16625258 -0.66448176 0.5156301 -0.112418875 -0.16129304 -0.03922928 0.10981041 0.064632386 0.079073526 0.07926708 -0.06643773 -0.2359892 -0.27394354 0.04649084 0.044952184 0.031146675 -0.28658187 0.022723624 0.040171277 -0.047630284 -0.26711634 0.113982245 -0.41723683 -0.28358153 0.25504714 -0.016875174 0.30843842 -0.12892045 -0.20547648 0.14848693 -0.0034379407 0.23293972 -0.06687816 -0.18945062 0.14794184 -0.412587 0.16116294 -0.07723467 0.050334092 0.36014444 0.08482859 0.022665612 -0.21225777 0.6531017 0.0550504 -0.37935007 0.041954525 -0.1112428 0.31418476 -0.11914704 -0.072324425 -0.0053285896 -0.047234006 -0.5570174 -0.1407856 0.2924372 -0.11714289 0.62131715 -0.122383066 -0.056825195 0.17483358 0.2756313 -0.36304688 -0.032349207 -0.060559973 0.03481973 0.29992986 -0.20058063 -0.11010048 -0.052894127 -0.19865637 0.060296 0.15049279 0.120224446 0.2099608 -0.27983767 -0.070251666 0.04608593 0.5181814 0.28007427 -0.10116069 -0.052418277 0.104107425 0.2228501 -0.07725049 -0.09142286 0.3111983 0.34989074 0.21698819 0.15128933 0.017490845 -0.23926535 0.21459574 -0.5222755 -0.11853528 0.35303247 0.18273526 -0.47695807 0.14317806
long -0.025428496 0.07635033 -0.25810504 0.18769279 -0.044986736 -0.0757949 -0.01134257 0.03890825 0.023785243 0.0264868 0.033203363 -0.026589718 -0.09220889 -0.11318491 0.038377684 0.026231728 0.015399442 -0.123313636 -0.0036366736 0.020548187 -0.02706584 -0.11955962 0.041827697 -0.16984847 -0.112533234 0.10644236 -0.0060532535 0.12930316 -0.048276026 -0.083754115 0.069924414 -0.0020780137 0.09550649 -0.031156685 -0.0631337 0.051393114 -0.16417247 0.05001868 -0.036641333 0.02740047 0.14414643 0.035436857 -0.005888816 -0.09844186 0.27076852 0.014801296 -0.16011827 0.02183324 -0.04582261 0.12732334 -0.04290225 -0.042334087 -0.0148377605 -0.021196518 -0.22794199 -0.06883523 0.113729745 -0.049213916 0.26454914 -0.042359155 -0.027725501 0.0718667 0.12339606 -0.14140646 -0.0096817 -0.025089333 0.011515035 0.107157886 -0.077540755 -0.05907191 -0.025627272 -0.07720785 0.033477377 0.070042744 0.058010858 0.08064176 -0.101897344 -0.015990067 0.022674395 0.2004598 0.11666889 -0.034061383 -0.010403017 0.032298435 0.08760577 -0.02182267 -0.046750594 0.10712729 0.13053934 0.093265 0.057737246 -0.004245314 -0.093028575 0.082481675 -0.20278035 -0.042621247 0.13972537 0.07937473 -0.19527505 0.06266242
pillow 0.0016419967 0.092143126 -0.32938552 0.19463024 -0.09511337 -0.08905662 0.04166385 0.06533696 0.041001998 0.0371737 -0.018067548 -0.005842455 -0.11087605 -0.10468818 0.08084353 0.012598559 0.0041868477 -0.13676393 0.024448117 0.08869464 -0.017790744 -0.12709832 0.05171369 -0.17082547 -0.16649365 0.09864384 0.006814737 0.13950068 -0.06094139 -0.059213985 0.048840888 -0.030596428 0.1779517 0.032170936 -0.059939884 0.09242855 -0.22641793 0.060365994 -0.027196825 0.057661206 0.15913488 0.02657652 -0.010561513 -0.11544716 0.304772 0.0015288439 -0.17434604 0.052638266 -0.028351896 0.14774244 -0.06349281 -0.07766244 -0.03736981 -0.0125212055 -0.254145 -0.07013867 0.112291634 -0.054060414 0.31563503 0.0005265939 -0.06806224 0.097604536 0.19109245 -0.1503939 -0.021344157 0.00096154487 -0.016014135 0.14081949 -0.06762624 -0.07578729 -0.0608867 -0.07281028 0.04643555 0.12586316 0.027426746 0.084457025 -0.101986445 -0.039534584 -0.0031964816 0.23518008 0.14767042 -0.055441696 0.017352767 0.07143258 0.06805746 8.4659725e-05 -0.083620735 0.07662095 0.12972958 0.132991 0.09418364 -0.046413653 -0.07062175 0.018360661 -0.18088122 0.004818793 0.18232529 0.052561082 -0.23570013 0.08088248
hugging 0.012740985 0.045480598 -0.17007856 0.10112582 -0.06409526 -0.0385812 0.036542237 0.033529676 0.030126203 0.028747763 -0.022427797 0.0005712651 -0.04803565 -0.047943924 0.05161774 -0.00040204532 -0.008296208 -0.064650044 0.021844387 0.06512731 -0.012661809 -0.06095522 0.022183659 -0.08825263 -0.09774228 0.05459922 0.008535263 0.0644631 -0.03415631 -0.024195185 0.022690697 -0.020637019 0.103872076 0.026522925 -0.03182446 0.05766366 -0.11860305 0.03005899 -0.022672594 0.03630477 0.08726414 0.01942255 -0.0022551336 -0.07053096 0.15203384 -0.0013858592 -0.095121674 0.026977543 -0.013586839 0.070609145 -0.040204126 -0.040291004 -0.03291222 -0.0076808324 -0.13087985 -0.03888035 0.060353726 -0.022864798 0.17109887 0.014463908 -0.04304168 0.057480227 0.11512457 -0.07990663 -0.010238287 0.008914029 -0.015130234 0.07081914 -0.034010753 -0.02838304 -0.03872259 -0.030721135 0.020754809 0.078640625 0.001976332 0.042544432 -0.042037513 -0.028081248 -0.009017171 0.12786709 0.079350665 -0.035582084 0.009100652 0.035584863 0.034392796 0.0029643464 -0.052440822 0.04112872 0.06457032 0.078407004 0.05771377 -0.03841929 -0.034915786 -0.005852905 -0.090609066 0.01379514 0.108662754 0.023227392 -0.12027694 0.05089561
may -0.052491244 0.11620969 -0.5201307 0.4212227 -0.059213262 -0.1465324 -0.05348344 0.098077945 0.06255964 0.058759622 0.073008806 -0.025777966 -0.17823596 -0.23249888 0.039982636 0.027959477 -0.0016721593 -0.20306635 0.02040099 -0.0031358388 0.0005255894 -0.19256727 0.081397675 -0.3709557 -0.24703158 0.21519719 -0.03679881 0.25147554 -0.13721006 -0.18373322 0.15046495 0.0287498 0.17009881 -0.101009555 -0.14797123 0.09788605 -0.35558912 0.13243769 -0.0818096 0.053971536 0.30799395 0.036734052 -0.011157993 -0.15416533 0.53656816 0.033741917 -0.3008086 0.015972927 -0.09261239 0.23426604 -0.08459616 -0.055430025 -0.009133957 -0.0511942 -0.46842977 -0.12899864 0.22611271 -0.08604028 0.5576125 -0.09053736 -0.037070222 0.17048655 0.22995235 -0.32976094 -0.060637344 -0.039025467 0.031247005 0.24881558 -0.19081402 -0.09809958 -0.014299855 -0.18715039 0.03546278 0.11290717 0.08477502 0.17750578 -0.23591861 -0.07954904 0.03090881 0.4640031 0.1904101 -0.082248285 -0.031131567 0.09070367 0.18972176 -0.068024844 -0.056571502 0.27119774 0.24370867 0.18096025 0.14177713 0.052957024 -0.1795833 0.21940845 -0.4302997 -0.12105816 0.29258287 0.1353569 -0.4191213 0.13379592
ran -0.036947817 0.062494732 -0.26766327 0.21343334 -0.04215641 -0.0719859 -0.01320828 0.03579187 0.020598706 0.030849673 0.036072325 -0.017476518 -0.11083582 -0.113264866 0.009357201 0.011481473 0.022447532 -0.12714477 0.013068807 0.020323444 -0.016768854 -0.1171069 0.049713645 -0.17043029 -0.11039477 0.10721971 0.0025508879 0.11926386 -0.06279795 -0.09831743 0.065868035 0.007113487 0.090345986 -0.038544692 -0.06443629 0.05428561 -0.1544474 0.062323686 -0.030059598 0.011068437 0.15300938 0.0328722 0.01116886 -0.079625346 0.26215616 0.02970337 -0.16199811 0.025300965 -0.04500626 0.11436887 -0.046953157 -0.022325082 -0.0050772056 -0.013890755 -0.22285278 -0.048424974 0.1251799 -0.046816587 0.24366967 -0.052286 -0.029736064 0.06824977 0.1118194 -0.16327924 -0.020603498 -0.03805987 0.013872834 0.12877113 -0.08034395 -0.049731452 -0.026794387 -0.08577234 0.030062525 0.06531832 0.042826142 0.07658857 -0.12468473 -0.01776832 0.017747965 0.21436276 0.105685696 -0.049003787 -0.031172486 0.028939385 0.08608112 -0.040192567 -0.03128203 0.11667324 0.14216277 0.07364153 0.05455605 -0.0062937145 -0.094388254 0.081124425 -0.22542575 -0.03808072 0.1453178 0.06405513 -0.18484712 0.07400479
stage -0.045848336 0.080845684 -0.3514984 0.27052462 -0.06316442 -0.08993049 -0.016033636 0.0532388 0.036920503 0.052450813 0.04563927 -0.033412557 -0.13813789 -0.14549726 0.016869467 0.026550936 0.025307592 -0.16880837 0.012871922 0.019704882 -0.026981639 -0.15251459 0.06673818 -0.22213148 -0.14016812 0.14285111 0.0012644518 0.1622029 -0.069197714 -0.1224339 0.078441076 0.011179301 0.10888764 -0.048724573 -0.088448115 0.08416327 -0.20224968 0.080405794 -0.026423998 0.023793485 0.19567879 0.045478787 0.020948015 -0.10740373 0.33817437 0.034891263 -0.20167083 0.036741354 -0.051319215 0.15560105 -0.06877365 -0.040649995 -0.009053793 -0.018286755 -0.3025505 -0.07558174 0.15905383 -0.058460426 0.31432822 -0.0632745 -0.039751608 0.088302 0.14330235 -0.20114872 -0.02384178 -0.05023139 0.012810867 0.16119248 -0.10284667 -0.06722576 -0.030485764 -0.103804864 0.028033003 0.08998209 0.061309412 0.105146766 -0.14919269 -0.026824238 0.021400293 0.27573237 0.13020948 -0.065492354 -0.030806318 0.047561407 0.112066336 -0.049799103 -0.04382284 0.15934269 0.18670177 0.101738304 0.066017725 -0.0023777736 -0.11953422 0.11628 -0.27978793 -0.046200853 0.18044373 0.08491265 -0.23634648 0.096375905
left -0.037362315 0.111193426 -0.43498212 0.34423515 -0.05586208 -0.09566723 -0.022449972 0.058083974 0.038383324 0.052641094 0.048171934 -0.050457373 -0.14992833 -0.16804019 0.021943528 0.03514588 0.025819218 -0.19508827 0.0024717143 0.030824117 -0.03368719 -0.17462581 0.071494214 -0.27526557 -0.18134308 0.16061941 -0.015192789 0.19540977 -0.091256425 -0.13344184 0.09147798 -0.009381307 0.14098816 -0.051924735 -0.12985307 0.11082803 -0.26089188 0.1169943 -0.044859953 0.030854097 0.23572506 0.056207053 0.028973196 -0.14117193 0.4222729 0.038465243 -0.2618131 0.043896437 -0.08694759 0.20110278 -0.08537576 -0.057621375 -0.008243492 -0.010760041 -0.35929736 -0.092184834 0.19183196 -0.08409282 0.38834554 -0.06250018 -0.0456434 0.11050866 0.1877087 -0.23464252 -0.014495408 -0.03184208 0.02262077 0.20135704 -0.121020086 -0.06700687 -0.044272795 -0.12251762 0.045254305 0.11164581 0.07966052 0.14846542 -0.18245593 -0.038857922 0.047646306 0.33975086 0.18908824 -0.08107522 -0.043983977 0.06659878 0.12624215 -0.04914057 -0.04645611 0.2104445 0.22182946 0.13764015 0.0865726 0.025910474 -0.14869347 0.14549875 -0.33587423 -0.07893403 0.21888348 0.10330552 -0.29543313 0.09700181
started -0.034939654 0.09407197 -0.4155704 0.32664335 -0.07282754 -0.09223926 -0.02113517 0.058738794 0.03771052 0.054831907 0.052043676 -0.039239515 -0.14608952 -0.17235857 0.028959457 0.034450755 0.019058982 -0.18889455 0.012538128 0.0164898 -0.018478831 -0.17281787 0.06520926 -0.26347828 -0.17917834 0.16436878 -0.012359478 0.18032692 -0.08984109 -0.13983257 0.097367 0.007997384 0.13272814 -0.04089562 -0.12846765 0.096243754 -0.25472957 0.10741873 -0.03775624 0.022595184 0.2290974 0.050886534 0.017607052 -0.11895855 0.39889598 0.034993894 -0.23666614 0.037563384 -0.06669515 0.19400132 -0.067686215 -0.041906837 -0.0028957364 -0.03075392 -0.34747493 -0.08513899 0.17851837 -0.08490204 0.3831201 -0.06740679 -0.03867676 0.10228699 0.1732063 -0.22793913 -0.013899011 -0.04686056 0.0245366 0.18658045 -0.11529858 -0.06561379 -0.03303754 -0.12238868 0.03466399 0.09316946 0.07844805 0.1297358 -0.17524631 -0.03319776 0.032588717 0.32390556 0.16950198 -0.07535954 -0.03482501 0.06433945 0.14018399 -0.052743334 -0.050964035 0.19529422 0.23153836 0.12895179 0.08604748 0.011628858 -0.14537108 0.14670037 -0.3299107 -0.06641973 0.2061273 0.10890666 -0.29465893 0.08449441
would -0.06320152 0.16754417 -0.69011635 0.5257373 -0.11314123 -0.16855311 -0.037414823 0.116117455 0.06925982 0.09119359 0.07926085 -0.06843576 -0.24101879 -0.27826884 0.05307651 0.045320913 0.02818797 -0.29463404 0.01703516 0.03787109 -0.048294 -0.28057435 0.109897934 -0.42844373 -0.2910186 0.267115 -0.011301573 0.31541595 -0.14281498 -0.22498573 0.15548468 -0.011231308 0.23839232 -0.07174217 -0.19172655 0.15878661 -0.42250898 0.16991553 -0.0783868 0.05274397 0.36735454 0.089891136 0.014680802 -0.21545017 0.6695415 0.05603176 -0.3985776 0.04813124 -0.10701933 0.32525575 -0.12364558 -0.08126915 -0.005757343 -0.051480673 -0.58789 -0.14197537 0.30549884 -0.1325195 0.6483746 -0.12302682 -0.05964433 0.18643378 0.2870417 -0.3770589 -0.032818437 -0.05870017 0.029883003 0.3099187 -0.20850407 -0.11759192 -0.058500364 -0.20569065 0.07015634 0.16353111 0.12280443 0.21786635 -0.28872457 -0.068270415 0.046678472 0.5386303 0.28935245 -0.10606571 -0.0547886 0.1145711 0.22388373 -0.08705261 -0.10204949 0.31041384 0.36705866 0.22440715 0.15886354 0.014802718 -0.24613814 0.22619188 -0.5356933 -0.1251838 0.35733452 0.18848139 -0.49715114 0.14855485
went -0.034599215 0.10912273 -0.44388255 0.34681666 -0.06211446 -0.09951093 -0.015897904 0.06410028 0.043204315 0.05596226 0.048689142 -0.041960586 -0.15146585 -0.16401224 0.031748526 0.030075697 0.022474043 -0.20833056 0.004980059 0.039136607 -0.026838006 -0.16908951 0.06627346 -0.27106392 -0.18663675 0.16565157 -0.0090388125 0.20635623 -0.09336002 -0.13071832 0.08702425 -0.009962905 0.15597415 -0.044593148 -0.13674447 0.1092189 -0.27543002 0.11262374 -0.03498313 0.026688477 0.2450261 0.05577525 0.035888866 -0.12921308 0.41910133 0.045815162 -0.2594022 0.03929451 -0.085793965 0.19908562 -0.089417756 -0.065138154 -0.011093758 -0.013509486 -0.35728037 -0.09907364 0.1869638 -0.09615794 0.40299985 -0.0672516 -0.035987955 0.10925678 0.19357996 -0.23386058 -0.010424123 -0.024356967 0.00969224 0.20262775 -0.11915665 -0.06935005 -0.054423206 -0.12316419 0.0527735 0.11659919 0.087768845 0.1452529 -0.17762178 -0.02760564 0.045082305 0.33796015 0.20233807 -0.08134097 -0.032062992 0.07784707 0.13124181 -0.054535568 -0.05300307 0.22028409 0.2281986 0.14279476 0.09297077 0.021922816 -0.14871153 0.14641379 -0.34210613 -0.080816664 0.22586475 0.10294219 -0.31039235 0.098363556
turned -0.018716222 0.15206322 -0.5674384 0.4541015 -0.11850717 -0.08044652 -0.025867581 0.11285742 0.043672998 0.086393535 0.08598422 -0.08888402 -0.23832744 -0.19493924 0.06808212 0.038944 -0.011496315 -0.25672 -0.010489162 0.014292407 -0.015663652 -0.2353883 0.08353376 -0.37154007 -0.26654896 0.19150329 -0.06396187 0.27360645 -0.09703187 -0.19962981 0.13006942 0.008346254 0.22321394 -0.042224 -0.19272356 0.13505268 -0.35807112 0.13718432 -0.06556746 0.06660032 0.34516013 0.06702902 0.023692232 -0.15317798 0.53622997 0.077147886 -0.35860243 0.047880683 -0.14052637 0.26707372 -0.14537343 -0.044841725 -0.02137176 -0.031064944 -0.48622367 -0.12868182 0.23768471 -0.14501566 0.5329691 -0.08614431 -0.0907204 0.15895934 0.2266396 -0.26890296 0.006795056 -0.036164206 0.032770105 0.25075033 -0.15686917 -0.054383956 -0.0532855 -0.1500422 0.07455444 0.10941993 0.11213052 0.19343996 -0.2533761 -0.03773411 0.062930435 0.43904573 0.25548077 -0.06975129 -0.04130816 0.11413724 0.16662706 -0.075507134 -0.07242602 0.28333244 0.31652924 0.15782559 0.14079441 -0.0073715434 -0.18639827 0.19897284 -0.46470383 -0.08311811 0.26418725 0.12967283 -0.4039849 0.13792478
jackson -0.022354616 0.039814103 -0.1565343 0.13235398 -0.022053162 -0.04355822 -0.006129752 0.03237419 0.015289694 0.017776575 0.018308232 -0.017375072 -0.06875546 -0.0673136 0.004867968 0.0078785 0.0050431276 -0.06780113 0.011142975 0.017024351 -0.010498759 -0.063885815 0.038074203 -0.10247424 -0.07963531 0.06340077 -0.0013056472 0.08441325 -0.045238063 -0.05330284 0.040085956 -0.0074722324 0.06650677 -0.015757533 -0.033478726 0.03811337 -0.100674674 0.050345186 -0.013311828 0.007537209 0.09838373 0.008237379 -0.0092585245 -0.055157572 0.16591042 0.011968425 -0.10157645 0.020730965 -0.015163514 0.07230732 -0.03668508 -0.01769072 -0.01649639 -0.01367857 -0.13742895 -0.035007413 0.08016841 -0.032495838 0.16001579 -0.04341151 -0.019494914 0.045488633 0.08212635 -0.09005138 -0.024751289 -0.01056079 0.0023186 0.08606528 -0.042850308 -0.028932955 -0.015604385 -0.046934206 0.022276385 0.04164686 0.026899923 0.05639112 -0.07991163 -0.015022129 0.007784762 0.13656907 0.056795474 -0.025157353 -0.021808289 0.017584156 0.056085143 -0.024940219 -0.034611892 0.05175833 0.083247006 0.058328822 0.040553052 -0.0065037897 -0.057911694 0.04554958 -0.12883785 -0.009405552 0.089594744 0.041721288 -0.12171406 0.028295945
top -0.030209871 0.10738362 -0.4737318 0.3570194 -0.08555301 -0.10010343 -0.045063537 0.05956199 0.06669991 0.06723464 0.1014247 -0.058548853 -0.12602513 -0.21724944 -0.007526298 0.03663979 0.0031433308 -0.20456843 0.064287215 0.05423902 -0.046707403 -0.20095842 0.046705823 -0.31973282 -0.21759453 0.19940563 -0.0043001114 0.24849607 -0.12972042 -0.16101798 0.096514456 -0.039984632 0.1347878 -0.030020854 -0.19824935 0.13829707 -0.22092392 0.1387707 0.0019207827 0.029164562 0.27586037 0.09743143 0.00546292 -0.22149974 0.45274717 0.047180984 -0.29573208 0.02758569 -0.034393884 0.21834446 -0.033191964 -0.09462234 0.0039459667 -0.0036825733 -0.45017922 -0.15498717 0.26692063 -0.088626415 0.41950315 -0.06451119 -0.029134922 0.15325294 0.18607059 -0.25228944 -0.06936056 -0.05093352 0.028599884 0.29711187 -0.12575886 -0.064802974 -0.08857848 -0.1938728 0.07184866 0.14528379 0.026213214 0.1293624 -0.19516933 -0.09314236 -0.025752675 0.38107142 0.22075768 -0.06592621 -0.07406237 0.076106004 0.19823958 -0.10192859 -0.10483552 0.2683931 0.23048289 0.2067544 0.08981805 0.04188335 -0.17220977 0.11784309 -0.3844897 -0.09041382 0.28491595 0.14592437 -0.33190325 0.10716096
single -0.08316842 0.1682101 -0.745527 0.55046344 -0.13095109 -0.18927059 -0.013068768 0.10591161 0.08386266 0.097531244 0.07999149 -0.07074712 -0.25761026 -0.29463133 0.07276206 0.040015146 0.040038273 -0.30306396 -0.0023821888 0.054870546 -0.05591792 -0.31705093 0.15132906 -0.45348442 -0.3010061 0.2822303 -0.0034710893 0.34059298 -0.1461261 -0.21431462 0.16865286 -0.0040749144 0.2660212 -0.06494377 -0.22169083 0.16833106 -0.4519057 0.14756808 -0.103962496 0.057724394 0.38300863 0.07687739 0.027127296 -0.25238875 0.7320332 0.057225097 -0.4169575 0.062896036 -0.103963934 0.33737293 -0.13219745 -0.09091134 0.0049859183 -0.063314825 -0.6292828 -0.15294763 0.32447574 -0.15330462 0.6962415 -0.12902343 -0.06206935 0.20203795 0.32189405 -0.40275982 -0.044671774 -0.08499973 0.02663301 0.3283071 -0.21382557 -0.12497437 -0.06316275 -0.20722677 0.08169558 0.15245964 0.1575959 0.2273043 -0.3062026 -0.083166085 0.06325346 0.56783754 0.32649395 -0.12708227 -0.03826787 0.11388549 0.23878695 -0.07419464 -0.11667083 0.31794047 0.37331253 0.22368419 0.18155755 0.012741303 -0.24950607 0.228585 -0.54640895 -0.112374015 0.36587957 0.18919538 -0.5357196 0.17257151
euphoria -0.0025802017 0.0195806 -0.13097087 0.088783205 -0.028590292 -0.017865 -0.012944204 0.018150602 0.0124930125 0.008927619 0.029606089 -0.0128158275 -0.05606984 -0.042756137 -0.00499825 0.01957543 0.011684124 -0.062251158 0.002961399 0.0015142108 -0.011113931 -0.047589436 0.01399746 -0.066631906 -0.03637923 0.057816215 0.011872564 0.06113251 -0.016003806 -0.03127229 0.024400322 0.0060400604 0.044413045 -0.023478258 -0.041254114 0.023524402 -0.07256117 0.03372628 -0.016445544 -0.0017101922 0.05154425 0.025149217 0.015760116 -0.043176554 0.1217165 0.015947703 -0.07084993 0.004178295 -0.025718652 0.064695686 -0.021528618 -0.012355226 -0.010390671 -0.0067366827 -0.10428899 -0.018859303 0.052422088 -0.01093585 0.09886827 -0.031191763 -0.014807341 0.037064113 0.051282775 -0.06289504 -0.00093339424 -0.012226224 0.0016770888 0.045445424 -0.040945265 -0.028254136 -0.0015154826 -0.032116808 0.019612584 0.03893516 0.019592538 0.040566217 -0.040492147 -0.018122355 0.02024098 0.0849718 0.050407745 -0.013197973 -0.017846849 0.016877934 0.048500624 -0.0001306201 -0.010788853 0.044201016 0.08016412 0.041553922 0.03895656 0.0052407803 -0.05150563 0.03369176 -0.085891895 -0.017391697 0.06848431 0.024319805 -0.08228065 0.029689785
hand -0.021107428 0.12546559 -0.47744343 0.35936028 -0.079560965 -0.064585485 -0.031115223 0.09351718 0.030231627 0.05758107 0.07029488 -0.0780265 -0.19680662 -0.16284227 0.06009451 0.04641407 0.0017886555 -0.22144969 -0.012962341 0.017842537 -0.0018994967 -0.2049327 0.066949174 -0.31396124 -0.2246293 0.15878987 -0.056003265 0.21797499 -0.093486615 -0.15714349 0.10007852 0.0056484053 0.1707814 -0.031324483 -0.16168916 0.11098526 -0.29512516 0.12376615 -0.060017925 0.061185338 0.2920596 0.04515535 0.011301515 -0.12717149 0.4520821 0.07082884 -0.2929206 0.023155479 -0.10736365 0.23786148 -0.11432142 -0.04066339 -0.0044685956 -0.027676346 -0.40498385 -0.116770044 0.20587285 -0.12813161 0.4370177 -0.07943275 -0.06990782 0.12143388 0.18323028 -0.21757604 0.008768349 -0.029188039 0.019315572 0.20690647 -0.12901822 -0.06010045 -0.033466928 -0.1213507 0.06906728 0.08914237 0.09792784 0.16253598 -0.21444423 -0.029477522 0.058671582 0.3580152 0.22508505 -0.05232456 -0.042310484 0.1048234 0.14167076 -0.06500303 -0.051388167 0.23951897 0.26979798 0.13038586 0.10721406 -0.0030913858 -0.16073424 0.15761815 -0.38798413 -0.06546426 0.21782969 0.115135774 -0.33055893 0.114296846
go -0.059815004 0.14529681 -0.62531126 0.4793966 -0.10946168 -0.1571206 -0.03387868 0.10599077 0.060636003 0.078210026 0.07427159 -0.054869555 -0.2109923 -0.25477877 0.03934509 0.04482469 0.024416003 -0.27092788 0.02136483 0.04098286 -0.03470864 -0.24768895 0.09720491 -0.38524166 -0.26598743 0.2377654 -0.016799701 0.28588533 -0.13109969 -0.2013748 0.14332947 -0.0014282397 0.21494071 -0.06731128 -0.18021202 0.14288445 -0.38012254 0.15526678 -0.0775292 0.044740666 0.3294109 0.07827528 0.017083148 -0.19662471 0.61267936 0.043699086 -0.36287874 0.042338528 -0.09564031 0.28809416 -0.1100486 -0.07030493 -0.01112804 -0.0375523 -0.52895856 -0.13498577 0.26892942 -0.111896105 0.5843507 -0.11524362 -0.057210438 0.17383508 0.2532792 -0.3386642 -0.035577364 -0.0635139 0.030077156 0.28210983 -0.18601406 -0.10945459 -0.053184338 -0.18647297 0.055966068 0.14971672 0.114948854 0.19526154 -0.26068327 -0.06134226 0.038982444 0.48589495 0.25485823 -0.099657364 -0.047261707 0.10582516 0.20753989 -0.07343163 -0.09053349 0.28619865 0.32592514 0.20406955 0.13793275 0.021359885 -0.21902351 0.20268242 -0.4879063 -0.11723486 0.32640347 0.16483243 -0.449724 0.13543798
face -0.01981085 0.14031006 -0.49163377 0.3855548 -0.096497774 -0.05436788 -0.030613365 0.10274221 0.040879212 0.072560735 0.086515054 -0.086531654 -0.20989856 -0.16770236 0.06666485 0.03720917 -0.011431131 -0.23018378 -0.018124022 0.01720498 -0.011508924 -0.21117619 0.06222011 -0.3348962 -0.23696993 0.16809922 -0.06373432 0.2356428 -0.09208812 -0.17025973 0.10934283 0.012697291 0.1786067 -0.03751924 -0.17226085 0.12934923 -0.3138229 0.115737416 -0.049205296 0.056741044 0.3081433 0.05333922 0.02197661 -0.13798596 0.45961264 0.07460137 -0.3197056 0.036703072 -0.13041356 0.23559108 -0.12994778 -0.026414827 -0.017275522 -0.03611461 -0.43133074 -0.12453738 0.21492676 -0.13133758 0.45674923 -0.08537024 -0.085031345 0.12669577 0.20381527 -0.22441092 0.0071765482 -0.035229992 0.0233851 0.22045578 -0.14428294 -0.046353508 -0.052446883 -0.12615187 0.07727971 0.087139755 0.10549957 0.16490574 -0.23079973 -0.028580386 0.05854365 0.3714315 0.23655017 -0.05356225 -0.036111105 0.11461388 0.14765081 -0.06600231 -0.054335173 0.24817944 0.28963953 0.13847764 0.12294647 -7.320354e-05 -0.16175409 0.16258875 -0.41379294 -0.075448096 0.21794334 0.1159886 -0.34159362 0.1241529
part -0.048091173 0.12174233 -0.4861441 0.37988672 -0.07804855 -0.12475464 -0.031632897 0.082071334 0.060653087 0.05794267 0.060128786 -0.040786687 -0.1682297 -0.1994114 0.033490364 0.03231516 0.029787708 -0.20786309 0.008827452 0.026750986 -0.034656227 -0.20385315 0.09238842 -0.30578807 -0.20239504 0.17798665 -0.006901269 0.22406167 -0.10574186 -0.15522848 0.107006334 -7.286447e-05 0.16347922 -0.05377611 -0.13125646 0.11370236 -0.2908265 0.12110164 -0.048129726 0.04291717 0.2636401 0.057411607 0.017718116 -0.15709502 0.4843457 0.036332544 -0.28630072 0.035752777 -0.07976228 0.22713506 -0.084602855 -0.05666998 -0.010479752 -0.026328985 -0.40790296 -0.09580235 0.2163318 -0.099007696 0.46537054 -0.09266594 -0.04146027 0.1307804 0.21068399 -0.26984513 -0.020776885 -0.044221587 0.031042838 0.2164871 -0.14786609 -0.07547393 -0.039513648 -0.14621837 0.054240122 0.11960311 0.09216482 0.16410866 -0.2088865 -0.05152051 0.029682681 0.38854712 0.20209275 -0.06680324 -0.05485463 0.07049682 0.16925345 -0.055785384 -0.07119142 0.22848852 0.25938585 0.15697597 0.11299593 0.024295935 -0.17507043 0.16617787 -0.38562307 -0.08638182 0.24882406 0.13242546 -0.3512206 0.11053166
let -0.049357843 0.12804827 -0.52978426 0.40798703 -0.08387064 -0.13278505 -0.023162194 0.092141576 0.048024673 0.06391319 0.07140311 -0.055188376 -0.18797454 -0.21408841 0.031662025 0.04223846 0.016817648 -0.22740847 0.012389483 0.031949114 -0.033459622 -0.22249001 0.08389039 -0.3285115 -0.2330751 0.20326228 -0.0076450724 0.2431227 -0.11469117 -0.16600044 0.12420277 -0.009601667 0.18257198 -0.051273525 -0.16094258 0.117270544 -0.31989127 0.13077669 -0.062352378 0.0472602 0.28307617 0.06381009 0.017020082 -0.17514531 0.5150474 0.037589364 -0.31162748 0.04152312 -0.08892813 0.24839807 -0.08900905 -0.06675701 0.0015290194 -0.038695436 -0.45681638 -0.11975448 0.23963441 -0.09763283 0.5014193 -0.09479489 -0.04951614 0.14029483 0.21671225 -0.29696962 -0.026079716 -0.048216127 0.031306334 0.2460361 -0.15760101 -0.095648445 -0.04738111 -0.15349406 0.055278726 0.13236913 0.09812774 0.16704199 -0.21702725 -0.058274016 0.035273694 0.41301808 0.22737302 -0.0825029 -0.042973094 0.08961988 0.17190129 -0.070825994 -0.08012572 0.24805865 0.28193873 0.1757545 0.114213064 0.011790227 -0.19057398 0.1728566 -0.41772842 -0.09433654 0.28440484 0.1387304 -0.37751034 0.117246725
heart -0.034729637 0.11648126 -0.44794366 0.34702474 -0.082427226 -0.10953835 -0.035050035 0.078172095 0.04879665 0.06005806 0.057080194 -0.038304407 -0.15780859 -0.18937877 0.030170916 0.033948153 0.01610854 -0.20744012 0.007742933 0.0286585 -0.019936152 -0.17836945 0.07982364 -0.2770753 -0.19151762 0.17376086 -0.016378542 0.20403346 -0.09399478 -0.15079735 0.10625613 0.0019346536 0.14242421 -0.05677779 -0.13535136 0.10526281 -0.26787826 0.11583377 -0.048774056 0.032145713 0.24740715 0.065549515 0.01550047 -0.14267747 0.43675008 0.041100368 -0.25604177 0.03480493 -0.08042871 0.20381391 -0.08761321 -0.044173542 -0.0015404492 -0.029095618 -0.38216862 -0.095847614 0.20108403 -0.08350869 0.4254934 -0.08326749 -0.039242867 0.120481335 0.18771927 -0.2408333 -0.015668219 -0.057357583 0.03324966 0.20788725 -0.14058153 -0.07168611 -0.042803448 -0.1359217 0.0411049 0.10108654 0.088758014 0.15238802 -0.20255868 -0.04596642 0.028096868 0.3452874 0.19088544 -0.07966617 -0.042556286 0.06355641 0.14953306 -0.06648256 -0.054723307 0.20882213 0.23729156 0.1296177 0.0927643 0.0057588518 -0.15835485 0.1568065 -0.35617524 -0.07057143 0.23506123 0.112277225 -0.31866398 0.10254814
year -0.032317024 0.08755158 -0.392301 0.31936815 -0.0326448 -0.11674302 -0.03697577 0.074087925 0.03924664 0.03315513 0.059227593 -0.0148598915 -0.117332175 -0.18887338 0.027630279 0.024166837 0.0037232232 -0.15453586 0.009073888 -0.0071935863 0.011467495 -0.14381725 0.054941133 -0.28990847 -0.18327677 0.16331999 -0.025785843 0.1927853 -0.11683806 -0.1417411 0.12020491 0.026861409 0.120745935 -0.088267945 -0.12009808 0.07310609 -0.28382826 0.092922136 -0.057398666 0.04843568 0.2255013 0.023034655 -0.01563592 -0.1130872 0.4137661 0.0154377 -0.22508647 0.0099940635 -0.06461981 0.17352925 -0.06813198 -0.03327466 0.0014776579 -0.055780154 -0.35205212 -0.09850874 0.17199957 -0.06791099 0.4388805 -0.061251335 -0.023453167 0.1353628 0.17554644 -0.25420594 -0.054496057 -0.0365422 0.031604588 0.17941281 -0.15066913 -0.069746785 0.003877991 -0.14551608 0.029694758 0.082868665 0.06679962 0.1422759 -0.18959467 -0.07350062 0.018196544 0.3630686 0.13542022 -0.07310136 -0.011918467 0.07903908 0.15806614 -0.039599415 -0.048275255 0.20595919 0.1856676 0.13076201 0.114182845 0.04928729 -0.1286853 0.16675144 -0.3249351 -0.08963976 0.21955861 0.10244938 -0.31928486 0.11021314
topic -0.018854333 0.088141255 -0.39103502 0.28753117 -0.058638733 -0.08218585 -0.03826745 0.05028113 0.065918215 0.044677556 0.09374031 -0.05603082 -0.101473376 -0.18230347 -0.012339174 0.037904598 -0.0075013745 -0.1757046 0.051201496 0.046097152 -0.034186963 -0.15720396 0.035098888 -0.25402313 -0.17757647 0.15687773 -0.014389795 0.19682239 -0.09579209 -0.12439777 0.07406061 -0.035766337 0.12210585 -0.01914908 -0.16603623 0.1184462 -0.16337593 0.121683896 0.013374053 0.02458282 0.2304817 0.08310226 0.00029565478 -0.19116877 0.38126385 0.044751212 -0.2490099 0.0097156735 -0.01720642 0.1683864 -0.014803283 -0.07907919 0.009451646 0.0052659684 -0.38584766 -0.13523121 0.22076276 -0.087769374 0.3446544 -0.050100792 -0.015776588 0.12255892 0.1435954 -0.19250228 -0.07546507 -0.05237125 0.009609302 0.25988424 -0.09737972 -0.057129532 -0.071747154 -0.15981647 0.05074313 0.1204569 0.0065702233 0.11343146 -0.15607338 -0.083302915 -0.032278717 0.3049582 0.18876283 -0.04219953 -0.06469563 0.07346222 0.1631733 -0.093431495 -0.07596473 0.228436 0.18522304 0.16783787 0.07460889 0.05019872 -0.15063937 0.09453446 -0.30625626 -0.06270964 0.24995461 0.12595259 -0.2681175 0.07543874
think -0.039869376 0.10799867 -0.45437744 0.35072726 -0.07405741 -0.11320961 -0.02015795 0.07735059 0.044624895 0.062280383 0.055462707 -0.04227652 -0.1634283 -0.18217771 0.03204892 0.036680304 0.02497656 -0.20082965 0.018854082 0.02952704 -0.031132385 -0.18469572 0.0795299 -0.2855409 -0.19346668 0.17369963 -0.014930227 0.20957208 -0.09708003 -0.14820488 0.10285532 -0.0013873273 0.15513833 -0.050549187 -0.12497082 0.10244667 -0.27703956 0.11218222 -0.048747472 0.033049766 0.2410127 0.056583524 0.014333408 -0.14074092 0.45098373 0.03887808 -0.2652209 0.0287958 -0.07219875 0.21684286 -0.08105912 -0.05691846 -0.0023671957 -0.029877432 -0.39135495 -0.09489637 0.19505163 -0.08390672 0.4332172 -0.08165468 -0.04186034 0.12968291 0.19479746 -0.25567946 -0.029286211 -0.03883048 0.025594365 0.20520586 -0.14061484 -0.077084586 -0.036911618 -0.13692644 0.03867843 0.10284455 0.08556891 0.15031067 -0.1937627 -0.04727263 0.027251612 0.36215216 0.19261184 -0.066689484 -0.03995114 0.0741919 0.15364027 -0.051084276 -0.060582735 0.20695463 0.24215083 0.1516818 0.10599926 0.0067609116 -0.161406 0.14475033 -0.35930398 -0.08048152 0.24454203 0.12590441 -0.3258251 0.09893426
legs -0.0033787903 0.09894797 -0.3458351 0.28330025 -0.07495998 -0.031006549 -0.017604318 0.07155255 0.029509995 0.058878176 0.049787425 -0.055329885 -0.15791236 -0.1096963 0.053170513 0.03162507 -0.004905777 -0.17046177 -0.016025074 0.004482981 -0.014062761 -0.14650387 0.052885674 -0.24524224 -0.17328463 0.113214105 -0.05306193 0.1630259 -0.06825086 -0.12512237 0.075528614 0.015587708 0.14396763 -0.015785199 -0.122988686 0.09758761 -0.22397374 0.084135816 -0.036437333 0.051021863 0.21781547 0.037610523 0.01471028 -0.090224095 0.33413032 0.06310314 -0.2320306 0.02340306 -0.097629696 0.1737381 -0.088635385 -0.018311648 -0.022546908 -0.017466255 -0.31092256 -0.08607225 0.14264524 -0.1073168 0.3289482 -0.059159733 -0.06775347 0.10122871 0.15344203 -0.15014765 0.0052252 -0.011925387 0.019012488 0.15322809 -0.102486804 -0.020679727 -0.037623618 -0.0846384 0.06130617 0.065451875 0.07716953 0.1247585 -0.16545299 -0.022837216 0.04553297 0.26676634 0.16955139 -0.0463863 -0.020423042 0.084602855 0.09465991 -0.045584403 -0.037521817 0.17199029 0.2097685 0.10463108 0.100259505 -0.003980724 -0.11697679 0.11486099 -0.28822258 -0.04890953 0.16064964 0.07056645 -0.24934125 0.09528021
hoodies -0.0039059 0.045445368 -0.13532235 0.081411295 -0.021082114 -0.041170776 0.0067065847 0.024422811 0.0042624613 0.01750055 0.0080787325 -0.0050587086 -0.045011036 -0.056207623 0.03393435 0.014721036 0.001184071 -0.060330797 -0.004498755 0.017396482 -0.010549313 -0.06018915 0.02404802 -0.077159636 -0.056650043 0.04350881 -0.0063437615 0.065718725 -0.022042388 -0.045879837 0.04167592 -0.010615529 0.05814421 -0.018475953 -0.029294018 0.02009443 -0.08888793 0.016957756 -0.023205576 0.017639391 0.07339171 0.012603909 -0.01696617 -0.057061773 0.13560398 0.012296303 -0.082864136 0.0098158065 -0.028358538 0.05787953 -0.032646853 -0.027957482 -0.009976801 -0.011739903 -0.11996099 -0.03759703 0.055973604 -0.03738685 0.13938178 -0.016516779 -0.019265112 0.053478174 0.05583174 -0.079415694 -0.009347455 -0.013234 -0.010467783 0.04947087 -0.042600032 -0.029782854 -0.015484701 -0.038311735 0.012362337 0.0287486 0.024994228 0.026675807 -0.042305116 -0.0034312853 -0.00093115604 0.10319607 0.07494922 -0.008989836 -0.013716361 0.010812475 0.04054096 -0.008899937 -0.014518512 0.049898442 0.07439296 0.03883887 0.031368487 0.00415415 -0.054560397 0.035900753 -0.09796198 -0.008031852 0.064510204 0.045599572 -0.09551406 0.023899954
